svm_type c_svc
kernel_type linear
nr_class 2
total_sv 11775
rho -1.1726645188225775
label 0 1
nr_sv 11125 650
SV
1 1:0.295809 2:-0.116826 3:0 4:0.995725 5:0.019753 
1 1:0.556198 2:0.262255 3:0 4:1 5:0.019753 
1 1:0.212837 2:-0.005166 3:0 4:0.895163 5:0.02963 
1 1:0.239406 2:0.15459 3:0 4:0.899438 5:0.02963 
1 1:0.508522 2:-0.044827 3:0 4:0.899281 5:0.02963 
1 1:0.492278 2:0.255639 3:0 4:0.899281 5:0.02963 
1 1:0.291309 2:0.125036 3:0 4:0.901109 5:0.02963 
1 1:0.23219 2:0.202279 3:0 4:0.901109 5:0.02963 
1 1:0.557155 2:0.207618 3:0 4:0.774239 5:0.02963 
1 1:0.531424 2:0.106238 3:0 4:0.774239 5:0.02963 
1 1:0.199406 2:1 3:1 4:0.508069 5:0.059259 
1 1:0.24029 2:0.864216 3:0.952399 4:0.496933 5:0.059259 
1 1:0.089931 2:0.288186 3:0.670038 4:0.520125 5:0.059259 
1 1:0.29077 2:0.69266 3:0.882777 4:0.500942 5:0.059259 
1 1:0.105159 2:0.359967 3:0.819548 4:0.517389 5:0.059259 
1 1:0.488146 2:-0.186908 3:0 4:0.93371 5:0.024691 
1 1:0.45385 2:0.026926 3:0 4:0.852659 5:0.034568 
1 1:0.501641 2:0.297602 3:0 4:0.853143 5:0.034568 
1 1:0.559392 2:0.053256 3:0 4:0.867863 5:0.034568 
1 1:0.492103 2:-0.041879 3:0 4:0.867863 5:0.034568 
1 1:0.519054 2:0.158997 3:0 4:0.860629 5:0.034568 
1 1:0.514539 2:0.021508 3:0 4:0.860629 5:0.034568 
1 1:0.334124 2:-0.280351 3:0 4:0.960336 5:0.024691 
1 1:0.352867 2:-0.148471 3:0 4:0.940826 5:0.034568 
1 1:0.260651 2:0.37042 3:0 4:0.945101 5:0.034568 
1 1:0.356919 2:-0.101563 3:0 4:0.924858 5:0.034568 
1 1:0.308935 2:-0.157738 3:0 4:0.924858 5:0.034568 
1 1:0.354919 2:0.163674 3:0 4:0.937737 5:0.034568 
1 1:0.288522 2:0.331454 3:0 4:0.937737 5:0.034568 
1 1:0.406252 2:0.068907 3:0 4:0.929859 5:0.034568 
1 1:0.371393 2:0.090606 3:0 4:0.929859 5:0.034568 
1 1:0.174165 2:0.298865 3:0.052874 4:0.862128 5:0.064198 
1 1:0.219705 2:0.117258 3:0 4:0.863231 5:0.064198 
1 1:0.166435 2:0.471933 3:0 4:0.883474 5:0.064198 
1 1:0.168631 2:0.118908 3:0.018977 4:0.869047 5:0.064198 
1 1:0.172564 2:0.045951 3:0 4:0.855752 5:0.064198 
1 1:0.305647 2:0.271046 3:0 4:0.941951 5:0.024691 
1 1:0.323533 2:0.264785 3:0 4:0.942435 5:0.024691 
1 1:0.482286 2:0.413729 3:0 4:0.941951 5:0.034568 
1 1:0.263407 2:0.332936 3:0 4:0.942435 5:0.034568 
1 1:0.454516 2:0.27665 3:0 4:0.942435 5:0.034568 
1 1:0.508373 2:0.491847 3:0 4:0.942435 5:0.034568 
1 1:0.382793 2:0.15318 3:0 4:0.940887 5:0.034568 
1 1:0.333572 2:0.248508 3:0 4:0.940887 5:0.034568 
1 1:0.610252 2:0.383301 3:0 4:0.938121 5:0.034568 
1 1:0.549365 2:0.235681 3:0 4:0.938121 5:0.034568 
1 1:0.244349 2:0.307244 3:0 4:0.940887 5:0.064198 
1 1:0.221053 2:0.2428 3:0 4:0.936573 5:0.064198 
1 1:0.230463 2:0.367844 3:0 4:0.936573 5:0.064198 
1 1:0.408794 2:0.506792 3:0 4:0.938121 5:0.064198 
1 1:0.365423 2:0.370543 3:0 4:0.936573 5:0.064198 
1 1:0.4288 2:-0.214678 3:0 4:0.882018 5:0.024691 
1 1:0.389736 2:-0.30093 3:0 4:0.882018 5:0.039506 
1 1:0.251689 2:0.812433 3:0.46932 4:0.630978 5:0.093827 
1 1:0.344415 2:0.60806 3:0.360903 4:0.722859 5:0.093827 
1 1:0.212399 2:0.609641 3:0.461875 4:0.737778 5:0.093827 
1 1:0.153454 2:0.645721 3:0.458581 4:0.743091 5:0.093827 
1 1:0.358636 2:-0.15751 3:0 4:0.963789 5:0.022222 
1 1:0.320897 2:-0.035041 3:0 4:0.860104 5:0.032099 
1 1:0.328623 2:-0.052029 3:0 4:0.864379 5:0.032099 
1 1:0.571519 2:-0.044226 3:0 4:0.87757 5:0.032099 
1 1:0.355603 2:-0.075297 3:0 4:0.877544 5:0.032099 
1 1:0.373814 2:-0.107678 3:0 4:0.877544 5:0.032099 
1 1:0.207728 2:-0.329289 3:0.138277 4:0.593195 5:0.061728 
1 1:0.171486 2:-0.236106 3:0.143051 4:0.588535 5:0.061728 
1 1:0.199526 2:-0.280121 3:0.38355 4:0.557312 5:0.061728 
1 1:0.587874 2:0.173881 3:0 4:0.856212 5:0.037037 
1 1:0.590489 2:0.001946 3:0 4:0.934346 5:0.02716 
1 1:0.54135 2:0.243291 3:0 4:0.908358 5:0.037037 
1 1:0.397758 2:0.010933 3:0 4:0.912633 5:0.037037 
1 1:0.56779 2:-0.042288 3:0 4:0.903873 5:0.037037 
1 1:0.458666 2:0.024179 3:0 4:0.904965 5:0.037037 
1 1:0.489981 2:-0.034529 3:0 4:0.920118 5:0.037037 
1 1:0.418008 2:-0.076086 3:0 4:0.920118 5:0.037037 
1 1:0.459524 2:-0.11075 3:0 4:0.912313 5:0.037037 
1 1:0.470614 2:-0.079755 3:0 4:0.913405 5:0.037037 
1 1:0.273299 2:-0.131729 3:0 4:0.848442 5:0.066667 
1 1:0.322838 2:-0.220698 3:0 4:0.861246 5:0.066667 
1 1:0.275298 2:-0.14171 3:0 4:0.868914 5:0.066667 
1 1:0.352202 2:-0.002509 3:0 4:0.852669 5:0.066667 
1 1:0.499991 2:0.270213 3:0 4:0.930384 5:0.02716 
1 1:0.358819 2:0.252586 3:0 4:0.930384 5:0.02716 
1 1:0.404467 2:0.383312 3:0 4:0.930384 5:0.037037 
1 1:0.441754 2:0.474094 3:0 4:0.930384 5:0.037037 
1 1:0.70123 2:0.320553 3:0 4:0.930384 5:0.037037 
1 1:0.533123 2:0.001363 3:0 4:0.930384 5:0.037037 
1 1:0.339075 2:0.144897 3:0 4:0.928836 5:0.037037 
1 1:0.432032 2:0.152758 3:0 4:0.928836 5:0.037037 
1 1:0.767558 2:0.318017 3:0 4:0.92607 5:0.037037 
1 1:0.319451 2:0.168659 3:0 4:0.928836 5:0.066667 
1 1:0.238699 2:0.392991 3:0 4:0.924522 5:0.066667 
1 1:0.547821 2:0.383582 3:0 4:0.92607 5:0.066667 
1 1:0.354849 2:0.196024 3:0 4:0.924522 5:0.066667 
1 1:0.285334 2:0.762025 3:0.337327 4:0.667013 5:0.096296 
1 1:0.304881 2:-0.207963 3:0.07289 4:0.782609 5:0.096296 
1 1:0.296847 2:0.462801 3:0.243757 4:0.782768 5:0.096296 
1 1:0.184167 2:0.55575 3:0.243109 4:0.782553 5:0.096296 
1 1:0.333177 2:-0.169625 3:0 4:0.97117 5:0.022222 
1 1:0.394849 2:-0.024523 3:0 4:0.97117 5:0.022222 
1 1:0.346162 2:0.282135 3:0 4:0.967815 5:0.032099 
1 1:0.448752 2:0.319158 3:0 4:0.967815 5:0.032099 
1 1:0.367982 2:0.257001 3:0 4:0.958768 5:0.032099 
1 1:0.325212 2:0.024465 3:0 4:0.958768 5:0.032099 
1 1:0.379889 2:0.39593 3:0 4:0.962799 5:0.032099 
1 1:0.35179 2:0.652546 3:0 4:0.962799 5:0.032099 
1 1:0.451373 2:0.490132 3:0 4:0.917474 5:0.032099 
1 1:0.418498 2:0.238849 3:0 4:0.917474 5:0.032099 
1 1:0.327589 2:0.651555 3:0 4:0.915753 5:0.061728 
1 1:0.208622 2:0.432083 3:0 4:0.896701 5:0.061728 
1 1:0.233993 2:0.627397 3:0.026671 4:0.903572 5:0.061728 
1 1:0.233057 2:0.553914 3:0 4:0.901717 5:0.061728 
1 1:0.286314 2:0.577505 3:0 4:0.924636 5:0.061728 
1 1:0.301504 2:0.049255 3:0 4:0.943167 5:0.02716 
1 1:0.374538 2:0.085566 3:0 4:0.941756 5:0.02716 
1 1:0.284829 2:-0.021994 3:0 4:0.939812 5:0.037037 
1 1:0.548904 2:0.342593 3:0 4:0.940296 5:0.037037 
1 1:0.294982 2:0.309265 3:0 4:0.931981 5:0.037037 
1 1:0.314879 2:0.228853 3:0 4:0.930086 5:0.037037 
1 1:0.319575 2:0.266008 3:0 4:0.943651 5:0.037037 
1 1:0.43326 2:0.360968 3:0 4:0.901081 5:0.037037 
1 1:0.418654 2:0.371261 3:0 4:0.901081 5:0.037037 
1 1:0.291941 2:0.418191 3:0 4:0.897726 5:0.066667 
1 1:0.245998 2:0.494072 3:0 4:0.886056 5:0.066667 
1 1:0.338241 2:0.529364 3:0 4:0.917345 5:0.066667 
1 1:0.336257 2:-0.290494 3:0 4:0.965224 5:0.02716 
1 1:0.375446 2:0.078185 3:0 4:0.965224 5:0.02716 
1 1:0.31369 2:0.123413 3:0 4:0.965224 5:0.037037 
1 1:0.289242 2:0.192071 3:0 4:0.965224 5:0.037037 
1 1:0.301453 2:-0.225821 3:0 4:0.959126 5:0.037037 
1 1:0.342356 2:-0.081561 3:0 4:0.959126 5:0.037037 
1 1:0.320134 2:0.179513 3:0 4:0.956853 5:0.037037 
1 1:0.330913 2:0.305706 3:0 4:0.956853 5:0.037037 
1 1:0.375927 2:0.067395 3:0 4:0.954098 5:0.037037 
1 1:0.36677 2:-0.034161 3:0 4:0.954098 5:0.037037 
1 1:0.22997 2:0.280848 3:0 4:0.950755 5:0.066667 
1 1:0.197722 2:-0.148355 3:0 4:0.939629 5:0.066667 
1 1:0.234536 2:0.293178 3:0 4:0.945727 5:0.066667 
1 1:0.194987 2:0.133778 3:0 4:0.948 5:0.066667 
1 1:0.243992 2:0.243826 3:0 4:0.939629 5:0.066667 
1 1:0.268536 2:0.029649 3:0 4:0.95003 5:0.02716 
1 1:0.335272 2:-0.087071 3:0 4:0.948619 5:0.02716 
1 1:0.224341 2:0.127177 3:0 4:0.95003 5:0.037037 
1 1:0.296484 2:0.221599 3:0 4:0.950514 5:0.037037 
1 1:0.308791 2:0.352305 3:0 4:0.950514 5:0.037037 
1 1:0.353104 2:0.395521 3:0 4:0.948619 5:0.037037 
1 1:0.333507 2:0.357964 3:0 4:0.950514 5:0.037037 
1 1:0.37023 2:0.191516 3:0 4:0.950514 5:0.037037 
1 1:0.417045 2:0.358909 3:0 4:0.950514 5:0.037037 
1 1:0.407642 2:0.223775 3:0 4:0.950514 5:0.037037 
1 1:0.34824 2:0.588107 3:0 4:0.950514 5:0.066667 
1 1:0.226786 2:0.372651 3:0 4:0.948619 5:0.066667 
1 1:0.302731 2:0.511201 3:0 4:0.950514 5:0.066667 
1 1:0.302796 2:0.651792 3:0 4:0.950514 5:0.066667 
1 1:0.334759 2:0.505792 3:0 4:0.950514 5:0.066667 
1 1:0.545415 2:-0.0956 3:0 4:0.940157 5:0.02716 
0.37084294889492603 1:0.411896 2:-0.332342 3:0 4:0.934791 5:0.041975 
1 1:0.117737 2:0.194492 3:0 4:0.893326 5:0.096296 
1 1:0.160585 2:0.564075 3:0 4:0.889603 5:0.096296 
1 1:0.121488 2:-0.079435 3:0 4:0.901326 5:0.096296 
1 1:0.15226 2:0.243939 3:0 4:0.905868 5:0.096296 
1 1:0.328366 2:-0.046336 3:0 4:0.971749 5:0.022222 
1 1:0.675669 2:0.075063 3:0 4:0.971749 5:0.022222 
1 1:0.663961 2:0.192844 3:0 4:0.965272 5:0.032099 
1 1:0.667699 2:0.33726 3:0 4:0.965272 5:0.032099 
1 1:0.331277 2:-0.35695 3:0 4:0.968482 5:0.032099 
1 1:0.68521 2:-0.000533 3:0 4:0.969574 5:0.032099 
1 1:0.651048 2:-0.043376 3:0 4:0.971749 5:0.032099 
1 1:0.202763 2:-0.056699 3:0 4:0.967984 5:0.061728 
1 1:0.60284 2:0.079452 3:0 4:0.963683 5:0.061728 
1 1:0.539715 2:-0.109719 3:0 4:0.971749 5:0.02716 
1 1:0.677121 2:0.210575 3:0 4:0.971749 5:0.037037 
1 1:0.505646 2:-0.237747 3:0 4:0.969574 5:0.037037 
1 1:0.671485 2:0.090999 3:0 4:0.971749 5:0.037037 
1 1:0.553944 2:0.104438 3:0 4:0.969574 5:0.066667 
1 1:0.484937 2:-0.114828 3:0 4:0.969574 5:0.066667 
1 1:0.591926 2:0.187021 3:0 4:0.971749 5:0.066667 
1 1:0.562213 2:0.052588 3:0 4:0.969574 5:0.066667 
1 1:0.430613 2:0.046797 3:0 4:0.971749 5:0.02716 
1 1:0.65645 2:0.142387 3:0 4:0.971749 5:0.02716 
1 1:0.604666 2:0.235967 3:0.023231 4:0.963377 5:0.037037 
1 1:0.66293 2:0.339629 3:0 4:0.965272 5:0.037037 
1 1:0.458582 2:0.015449 3:0 4:0.970657 5:0.037037 
1 1:0.68139 2:0.201226 3:0 4:0.971749 5:0.037037 
1 1:0.677026 2:0.153275 3:0 4:0.971749 5:0.037037 
1 1:0.691571 2:0.036958 3:0 4:0.969068 5:0.037037 
1 1:0.677587 2:0.078722 3:0 4:0.97016 5:0.037037 
1 1:0.546436 2:-0.013941 3:0 4:0.965272 5:0.066667 
1 1:0.397755 2:0.191405 3:0 4:0.97016 5:0.066667 
1 1:0.584192 2:0.136671 3:0 4:0.963683 5:0.066667 
1 1:0.5348 2:0.239795 3:0 4:0.962591 5:0.066667 
1 1:0.552879 2:0.003657 3:0 4:0.963683 5:0.066667 
1 1:0.663547 2:0.540261 3:0 4:0.971749 5:0.02716 
1 1:0.535029 2:0.435869 3:0 4:0.971749 5:0.02716 
1 1:0.611269 2:0.487664 3:0 4:0.971749 5:0.037037 
1 1:0.54522 2:0.648844 3:0 4:0.971749 5:0.037037 
1 1:0.679388 2:0.612271 3:0 4:0.971749 5:0.037037 
1 1:0.518802 2:0.090275 3:0 4:0.971749 5:0.037037 
1 1:0.594902 2:0.337386 3:0 4:0.971749 5:0.037037 
1 1:0.577797 2:0.287027 3:0 4:0.971749 5:0.037037 
1 1:0.658854 2:0.235674 3:0 4:0.971749 5:0.037037 
1 1:0.608434 2:0.143351 3:0 4:0.971749 5:0.037037 
1 1:0.455977 2:0.297268 3:0 4:0.971749 5:0.066667 
1 1:0.463799 2:0.506181 3:0 4:0.971749 5:0.066667 
1 1:0.455312 2:0.482051 3:0 4:0.971749 5:0.066667 
1 1:0.512867 2:0.113195 3:0 4:0.971749 5:0.066667 
1 1:0.458432 2:0.335411 3:0 4:0.971749 5:0.066667 
1 1:0.772452 2:0.189137 3:0 4:0.962591 5:0.022222 
1 1:0.818291 2:0.359541 3:0 4:0.962591 5:0.022222 
1 1:0.703949 2:0.136522 3:0 4:0.962591 5:0.02716 
1 1:0.829468 2:0.31731 3:0 4:0.962591 5:0.02716 
1 1:0.834992 2:0.338374 3:0 4:0.962591 5:0.02716 
1 1:0.732901 2:0.29299 3:0 4:0.962591 5:0.041975 
1 1:0.777015 2:0.404596 3:0 4:0.962591 5:0.041975 
1 1:0.708175 2:0.126112 3:0 4:0.962591 5:0.041975 
1 1:0.674959 2:0.219537 3:0 4:0.962591 5:0.041975 
1 1:0.731362 2:0.168591 3:0 4:0.962591 5:0.041975 
1 1:0.301378 2:0.210387 3:0 4:0.953432 5:0.096296 
1 1:0.529659 2:0.379228 3:0 4:0.962591 5:0.096296 
1 1:0.513951 2:0.715321 3:0.009444 4:0.96182 5:0.096296 
1 1:0.4279 2:0.463481 3:0 4:0.962591 5:0.096296 
1 1:0.660082 2:0.018337 3:0 4:0.932389 5:0.014815 
1 1:0.581103 2:0.087943 3:0 4:0.932389 5:0.019753 
1 1:0.569728 2:0.244279 3:0 4:0.932389 5:0.019753 
1 1:0.624055 2:0.204931 3:0 4:0.932389 5:0.019753 
1 1:0.612217 2:-0.032903 3:0 4:0.932389 5:0.019753 
1 1:0.561899 2:0.117241 3:0 4:0.932389 5:0.019753 
1 1:0.646753 2:0.463009 3:0 4:0.932389 5:0.019753 
1 1:0.704612 2:0.310199 3:0 4:0.932389 5:0.019753 
1 1:0.677961 2:-0.017477 3:0 4:0.932389 5:0.019753 
1 1:0.450793 2:0.160245 3:0 4:0.932389 5:0.034568 
1 1:0.487992 2:-0.121089 3:0 4:0.932389 5:0.034568 
1 1:0.493498 2:0.261141 3:0 4:0.932389 5:0.034568 
1 1:0.526117 2:0.313774 3:0 4:0.932389 5:0.034568 
1 1:0.494936 2:0.156688 3:0 4:0.932389 5:0.034568 
1 1:0.577691 2:-0.131724 3:0 4:0.932389 5:0.017284 
1 1:0.627102 2:0.040116 3:0 4:0.932389 5:0.022222 
1 1:0.634561 2:0.198533 3:0 4:0.932389 5:0.022222 
1 1:0.516795 2:-0.008691 3:0 4:0.932389 5:0.022222 
1 1:0.569694 2:0.023755 3:0 4:0.930494 5:0.022222 
1 1:0.546159 2:0.070465 3:0 4:0.932389 5:0.022222 
1 1:0.649662 2:0.511495 3:0 4:0.932389 5:0.022222 
1 1:0.679583 2:0.26758 3:0 4:0.932389 5:0.022222 
1 1:0.634454 2:0.092143 3:0 4:0.932389 5:0.022222 
1 1:0.520587 2:0.269834 3:0 4:0.932389 5:0.037037 
1 1:0.532824 2:0.13478 3:0 4:0.930494 5:0.037037 
1 1:0.616753 2:0.430254 3:0 4:0.932389 5:0.037037 
1 1:0.462014 2:0.274186 3:0 4:0.932389 5:0.037037 
1 1:0.539955 2:0.306274 3:0 4:0.932389 5:0.037037 
1 1:0.571682 2:-0.169862 3:0 4:0.932389 5:0.017284 
1 1:0.543616 2:-0.006556 3:0 4:0.932389 5:0.022222 
1 1:0.539522 2:-0.115198 3:0 4:0.932389 5:0.022222 
1 1:0.60942 2:-0.065466 3:0 4:0.932389 5:0.022222 
1 1:0.608949 2:-0.080883 3:0 4:0.932389 5:0.022222 
1 1:0.557343 2:-0.024642 3:0 4:0.932389 5:0.022222 
1 1:0.616095 2:-0.041254 3:0 4:0.932389 5:0.022222 
1 1:0.508685 2:-0.106703 3:0 4:0.932389 5:0.037037 
1 1:0.461707 2:-0.14458 3:0 4:0.932389 5:0.037037 
1 1:0.509089 2:0.108851 3:0 4:0.932389 5:0.037037 
1 1:0.522055 2:-0.116267 3:0 4:0.932389 5:0.037037 
1 1:0.523655 2:-0.162566 3:0 4:0.931618 5:0.017284 
1 1:0.511471 2:-0.221219 3:0 4:0.931618 5:0.022222 
1 1:0.571971 2:0.133375 3:0 4:0.931618 5:0.022222 
1 1:0.510545 2:0.198679 3:0 4:0.931618 5:0.022222 
1 1:0.591307 2:0.078873 3:0 4:0.929723 5:0.022222 
1 1:0.61189 2:0.110149 3:0 4:0.931618 5:0.022222 
1 1:0.617691 2:0.152841 3:0 4:0.931618 5:0.022222 
1 1:0.61439 2:0.069753 3:0 4:0.931618 5:0.022222 
1 1:0.635689 2:0.140521 3:0 4:0.931618 5:0.022222 
1 1:0.558248 2:0.259401 3:0 4:0.931618 5:0.037037 
1 1:0.488589 2:0.180893 3:0 4:0.929723 5:0.037037 
1 1:0.517133 2:0.325633 3:0 4:0.931618 5:0.037037 
1 1:0.486896 2:0.349921 3:0 4:0.931618 5:0.037037 
1 1:0.556969 2:0.16857 3:0 4:0.931618 5:0.037037 
1 1:0.35126 2:0.025775 3:0 4:0.931618 5:0.051852 
1 1:0.344613 2:0.179981 3:0 4:0.930066 5:0.051852 
1 1:0.429191 2:0.523363 3:0 4:0.92817 5:0.051852 
1 1:0.379154 2:-0.290269 3:0 4:0.930836 5:0.051852 
1 1:0.358677 2:0.025168 3:0 4:0.930066 5:0.051852 
1 1:0.024615 2:0.348767 3:0.391478 4:0.676887 5:0.207407 
1 1:0.112851 2:0.573562 3:0.353398 4:0.822878 5:0.207407 
1 1:0.120995 2:0.526528 3:0.346295 4:0.839153 5:0.207407 
1 1:0.044878 2:0.408825 3:0.403182 4:0.843371 5:0.207407 
1 1:0.263994 2:-0.077936 3:0 4:0.995725 5:0.019753 
1 1:0.407353 2:0.13502 3:0 4:1 5:0.019753 
1 1:0.195912 2:-0.111728 3:0 4:0.895163 5:0.02963 
1 1:0.348951 2:0.146558 3:0 4:0.899438 5:0.02963 
1 1:0.310408 2:0.446178 3:0 4:0.899281 5:0.02963 
1 1:0.373173 2:0.196175 3:0 4:0.899281 5:0.02963 
1 1:0.461136 2:0.109235 3:0 4:0.901109 5:0.02963 
1 1:0.363723 2:0.339198 3:0 4:0.901109 5:0.02963 
1 1:0.343431 2:0.030685 3:0 4:0.774239 5:0.02963 
1 1:0.355765 2:1 3:1 4:0.508069 5:0.059259 
1 1:0.10292 2:0.568191 3:0.952399 4:0.496933 5:0.059259 
1 1:0.312769 2:0.240351 3:0.670038 4:0.520125 5:0.059259 
1 1:0.200716 2:0.642734 3:0.882777 4:0.500942 5:0.059259 
1 1:0.206975 2:0.503897 3:0.819548 4:0.517389 5:0.059259 
1 1:0.43577 2:0.184119 3:0 4:0.853143 5:0.034568 
1 1:0.369687 2:-0.133955 3:0 4:0.867863 5:0.034568 
1 1:0.355226 2:0.133518 3:0 4:0.867863 5:0.034568 
1 1:0.423654 2:0.080271 3:0 4:0.860629 5:0.034568 
1 1:0.443408 2:0.301646 3:0 4:0.860629 5:0.034568 
1 1:0.343693 2:-0.077281 3:0 4:0.738872 5:0.034568 
1 1:0.281622 2:0.040392 3:0 4:0.960336 5:0.024691 
1 1:0.355077 2:0.050447 3:0 4:0.940826 5:0.034568 
1 1:0.370309 2:0.241411 3:0 4:0.945101 5:0.034568 
1 1:0.240128 2:-0.086934 3:0 4:0.924858 5:0.034568 
1 1:0.251801 2:-0.153878 3:0 4:0.924858 5:0.034568 
1 1:0.482752 2:-0.043211 3:0 4:0.937737 5:0.034568 
1 1:0.375048 2:0.183284 3:0 4:0.937737 5:0.034568 
1 1:0.504839 2:0.032231 3:0 4:0.929859 5:0.034568 
1 1:0.387322 2:-0.134389 3:0 4:0.929859 5:0.034568 
1 1:0.329191 2:0.454411 3:0.052874 4:0.862128 5:0.064198 
1 1:0.223991 2:0.338159 3:0 4:0.863231 5:0.064198 
1 1:0.269396 2:0.355959 3:0 4:0.883474 5:0.064198 
1 1:0.273494 2:0.279997 3:0.018977 4:0.869047 5:0.064198 
1 1:0.318935 2:0.424135 3:0 4:0.855752 5:0.064198 
1 1:0.477428 2:0.05394 3:0 4:0.941951 5:0.024691 
1 1:0.36257 2:-0.061932 3:0 4:0.942435 5:0.024691 
1 1:0.483373 2:0.533474 3:0 4:0.941951 5:0.034568 
1 1:0.465849 2:0.296794 3:0 4:0.942435 5:0.034568 
1 1:0.693187 2:0.316618 3:0 4:0.942435 5:0.034568 
1 1:0.323368 2:0.232543 3:0 4:0.942435 5:0.034568 
1 1:0.640951 2:0.4029 3:0 4:0.940887 5:0.034568 
1 1:0.314251 2:0.310252 3:0 4:0.940887 5:0.034568 
1 1:0.709234 2:0.105055 3:0 4:0.938121 5:0.034568 
1 1:0.637325 2:0.439361 3:0 4:0.938121 5:0.034568 
1 1:0.241836 2:0.425449 3:0 4:0.940887 5:0.064198 
1 1:0.327892 2:0.397625 3:0 4:0.936573 5:0.064198 
1 1:0.594089 2:0.653849 3:0 4:0.936573 5:0.064198 
1 1:0.483956 2:0.457687 3:0 4:0.938121 5:0.064198 
1 1:0.237703 2:0.241228 3:0 4:0.936573 5:0.064198 
1 1:0.483566 2:-0.086003 3:0 4:0.882018 5:0.024691 
1 1:0.492279 2:-0.107 3:0 4:0.882018 5:0.024691 
1 1:0.438091 2:-0.079865 3:0 4:0.876652 5:0.039506 
1 1:0.374771 2:-0.211406 3:0 4:0.876652 5:0.039506 
1 1:0.46581 2:-0.00653 3:0 4:0.882018 5:0.039506 
1 1:0.492414 2:0.047561 3:0 4:0.876652 5:0.039506 
1 1:0.143846 2:0.517895 3:0.46932 4:0.630978 5:0.093827 
1 1:0.134817 2:0.712936 3:0.360903 4:0.722859 5:0.093827 
1 1:0.204042 2:0.805615 3:0.461875 4:0.737778 5:0.093827 
1 1:0.108092 2:0.542517 3:0.458581 4:0.743091 5:0.093827 
1 1:0.474278 2:-0.32269 3:0 4:0.963789 5:0.022222 
1 1:0.436998 2:-0.026828 3:0 4:0.968063 5:0.022222 
1 1:0.303084 2:-0.20341 3:0 4:0.864379 5:0.032099 
1 1:0.217417 2:-0.317447 3:0 4:0.876478 5:0.032099 
1 1:0.349965 2:-0.115875 3:0 4:0.87757 5:0.032099 
1 1:0.613717 2:0.199728 3:0 4:0.877544 5:0.032099 
1 1:0.358064 2:0.22503 3:0 4:0.877544 5:0.032099 
1 1:0.177169 2:0.04353 3:0.138277 4:0.593195 5:0.061728 
1 1:0.35133 2:-0.141123 3:0.143051 4:0.588535 5:0.061728 
1 1:0.251779 2:-0.070308 3:0.38355 4:0.557312 5:0.061728 
1 1:0.565749 2:0.158073 3:0 4:0.929776 5:0.02716 
1 1:0.477015 2:-0.047241 3:0 4:0.85208 5:0.037037 
1 1:0.244833 2:-0.361459 3:0 4:0.872939 5:0.037037 
1 1:0.235645 2:-0.300385 3:0 4:0.872939 5:0.037037 
1 1:0.399198 2:-0.045258 3:0 4:0.856212 5:0.037037 
1 1:0.503713 2:-0.187 3:0 4:0.934346 5:0.02716 
1 1:0.59033 2:0.196525 3:0 4:0.908358 5:0.037037 
1 1:0.270014 2:0.036208 3:0 4:0.912633 5:0.037037 
1 1:0.178448 2:-0.582878 3:0 4:0.903873 5:0.037037 
1 1:0.295225 2:-0.359878 3:0 4:0.904965 5:0.037037 
1 1:0.365642 2:0.012343 3:0 4:0.920118 5:0.037037 
1 1:0.33572 2:0.153705 3:0 4:0.920118 5:0.037037 
1 1:0.356765 2:-0.1881 3:0 4:0.913405 5:0.037037 
1 1:0.251345 2:0.175785 3:0 4:0.848442 5:0.066667 
1 1:0.228912 2:-0.195298 3:0 4:0.861246 5:0.066667 
1 1:0.21872 2:0.099829 3:0 4:0.868914 5:0.066667 
1 1:0.145883 2:-0.156887 3:0 4:0.852669 5:0.066667 
1 1:0.319823 2:0.216618 3:0 4:0.84729 5:0.066667 
1 1:0.452328 2:0.055148 3:0 4:0.930384 5:0.02716 
1 1:0.457725 2:0.107807 3:0 4:0.930384 5:0.02716 
1 1:0.440772 2:0.142081 3:0 4:0.930384 5:0.037037 
1 1:0.405527 2:0.108002 3:0 4:0.930384 5:0.037037 
1 1:0.44533 2:0.159795 3:0 4:0.930384 5:0.037037 
1 1:0.439964 2:0.102282 3:0 4:0.930384 5:0.037037 
1 1:0.492941 2:0.188741 3:0 4:0.928836 5:0.037037 
1 1:0.449582 2:0.118696 3:0 4:0.928836 5:0.037037 
1 1:0.560447 2:0.105944 3:0 4:0.92607 5:0.037037 
1 1:0.529827 2:0.268659 3:0 4:0.92607 5:0.037037 
1 1:0.437176 2:0.540527 3:0 4:0.928836 5:0.066667 
1 1:0.39648 2:0.33032 3:0 4:0.924522 5:0.066667 
1 1:0.444498 2:0.291814 3:0 4:0.92607 5:0.066667 
1 1:0.386847 2:0.298049 3:0 4:0.924522 5:0.066667 
1 1:0.434066 2:-0.085824 3:0 4:0.870383 5:0.02716 
1 1:0.451507 2:-0.110141 3:0 4:0.870383 5:0.02716 
1 1:0.390523 2:-0.142463 3:0 4:0.870383 5:0.041975 
1 1:0.388512 2:0.060882 3:0 4:0.870383 5:0.041975 
1 1:0.388836 2:-0.169882 3:0 4:0.870383 5:0.041975 
1 1:0.459914 2:-0.12728 3:0 4:0.870383 5:0.041975 
1 1:0.141041 2:0.356326 3:0.337327 4:0.667013 5:0.096296 
1 1:0.356344 2:0.106103 3:0.07289 4:0.782609 5:0.096296 
1 1:0.195083 2:0.417741 3:0.243757 4:0.782768 5:0.096296 
1 1:0.341478 2:0.585346 3:0.243109 4:0.782553 5:0.096296 
1 1:0.405802 2:0.028757 3:0 4:0.97117 5:0.022222 
1 1:0.515787 2:0.113802 3:0 4:0.97117 5:0.022222 
1 1:0.407955 2:0.363719 3:0 4:0.967815 5:0.032099 
1 1:0.590194 2:0.378678 3:0 4:0.967815 5:0.032099 
1 1:0.433233 2:0.325346 3:0 4:0.958768 5:0.032099 
1 1:0.311316 2:0.112399 3:0 4:0.958768 5:0.032099 
1 1:0.523155 2:0.169337 3:0 4:0.962799 5:0.032099 
1 1:0.614044 2:0.446057 3:0 4:0.962799 5:0.032099 
1 1:0.492052 2:0.121873 3:0 4:0.917474 5:0.032099 
1 1:0.509673 2:0.082957 3:0 4:0.917474 5:0.032099 
1 1:0.288224 2:0.370065 3:0 4:0.915753 5:0.061728 
1 1:0.191504 2:0.385513 3:0 4:0.896701 5:0.061728 
1 1:0.309573 2:0.224777 3:0.026671 4:0.903572 5:0.061728 
1 1:0.268858 2:0.213571 3:0 4:0.901717 5:0.061728 
1 1:0.280782 2:0.327542 3:0 4:0.924636 5:0.061728 
1 1:0.241766 2:-0.363998 3:0 4:0.943167 5:0.02716 
1 1:0.556081 2:0.309141 3:0 4:0.941756 5:0.02716 
1 1:0.322364 2:0.070524 3:0 4:0.939812 5:0.037037 
1 1:0.542369 2:0.344779 3:0 4:0.940296 5:0.037037 
1 1:0.38484 2:0.05515 3:0 4:0.931981 5:0.037037 
1 1:0.490191 2:0.082966 3:0 4:0.930086 5:0.037037 
1 1:0.449196 2:0.063692 3:0 4:0.943651 5:0.037037 
1 1:0.56727 2:-0.032618 3:0 4:0.901081 5:0.037037 
1 1:0.411373 2:0.298905 3:0 4:0.897726 5:0.066667 
1 1:0.374362 2:0.260972 3:0 4:0.886056 5:0.066667 
1 1:0.458007 2:0.476298 3:0 4:0.917345 5:0.066667 
1 1:0.52127 2:0.166162 3:0 4:0.965224 5:0.02716 
1 1:0.599531 2:0.006596 3:0 4:0.965224 5:0.02716 
1 1:0.475713 2:0.26569 3:0 4:0.965224 5:0.037037 
1 1:0.543355 2:0.424793 3:0 4:0.965224 5:0.037037 
1 1:0.426711 2:0.225159 3:0 4:0.959126 5:0.037037 
1 1:0.392058 2:-0.142347 3:0 4:0.959126 5:0.037037 
1 1:0.588198 2:0.21818 3:0 4:0.956853 5:0.037037 
1 1:0.54031 2:0.237673 3:0 4:0.956853 5:0.037037 
1 1:0.470065 2:0.125695 3:0 4:0.954098 5:0.037037 
1 1:0.481219 2:-0.009823 3:0 4:0.954098 5:0.037037 
1 1:0.421424 2:0.236814 3:0 4:0.950755 5:0.066667 
1 1:0.253829 2:0.079634 3:0 4:0.939629 5:0.066667 
1 1:0.378322 2:0.258094 3:0 4:0.945727 5:0.066667 
1 1:0.225203 2:0.057064 3:0 4:0.948 5:0.066667 
1 1:0.262758 2:0.029374 3:0 4:0.939629 5:0.066667 
1 1:0.364407 2:0.060353 3:0 4:0.95003 5:0.02716 
1 1:0.420656 2:0.23045 3:0 4:0.948619 5:0.02716 
1 1:0.316824 2:0.48517 3:0 4:0.95003 5:0.037037 
1 1:0.410279 2:0.525324 3:0 4:0.950514 5:0.037037 
1 1:0.427527 2:-0.015479 3:0 4:0.950514 5:0.037037 
1 1:0.381774 2:0.008162 3:0 4:0.948619 5:0.037037 
1 1:0.413495 2:0.160383 3:0 4:0.950514 5:0.037037 
1 1:0.436393 2:0.185467 3:0 4:0.950514 5:0.037037 
1 1:0.416602 2:-0.189139 3:0 4:0.950514 5:0.037037 
1 1:0.435426 2:-0.063344 3:0 4:0.950514 5:0.037037 
1 1:0.218227 2:-0.07624 3:0 4:0.950514 5:0.066667 
1 1:0.289312 2:0.215182 3:0 4:0.948619 5:0.066667 
1 1:0.504232 2:0.532812 3:0 4:0.950514 5:0.066667 
1 1:0.270355 2:0.1187 3:0 4:0.950514 5:0.066667 
1 1:0.306432 2:-0.005712 3:0 4:0.950514 5:0.066667 
1 1:0.114514 2:0.206035 3:0 4:0.893326 5:0.096296 
1 1:0.258933 2:0.411056 3:0 4:0.889603 5:0.096296 
1 1:0.314769 2:0.359549 3:0 4:0.901326 5:0.096296 
1 1:0.140148 2:0.399113 3:0 4:0.905868 5:0.096296 
1 1:0.401668 2:-0.13049 3:0 4:0.971749 5:0.022222 
1 1:0.62772 2:0.304935 3:0 4:0.971749 5:0.022222 
1 1:0.403553 2:-0.247565 3:0 4:0.965272 5:0.032099 
1 1:0.568156 2:0.063591 3:0 4:0.965272 5:0.032099 
1 1:0.387671 2:-0.053001 3:0 4:0.968482 5:0.032099 
1 1:0.45261 2:0.124119 3:0 4:0.969574 5:0.032099 
1 1:0.435722 2:0.073432 3:0 4:0.971749 5:0.032099 
1 1:0.261665 2:0.046564 3:0 4:0.971749 5:0.032099 
1 1:0.518236 2:-0.063024 3:0 4:0.969068 5:0.032099 
1 1:0.489335 2:-0.171014 3:0 4:0.97016 5:0.032099 
1 1:0.183783 2:-0.172286 3:0 4:0.963096 5:0.061728 
1 1:0.327275 2:-0.107944 3:0 4:0.967984 5:0.061728 
1 1:0.366884 2:-0.044763 3:0 4:0.963683 5:0.061728 
1 1:0.386308 2:0.225726 3:0 4:0.960415 5:0.061728 
1 1:0.195365 2:0.031231 3:0 4:0.961507 5:0.061728 
1 1:0.462678 2:0.071138 3:0 4:0.971749 5:0.02716 
1 1:0.515092 2:0.22585 3:0 4:0.971749 5:0.02716 
1 1:0.457775 2:0.101223 3:0 4:0.971749 5:0.037037 
1 1:0.400031 2:0.167442 3:0 4:0.971749 5:0.037037 
1 1:0.419691 2:0.188235 3:0 4:0.969574 5:0.037037 
1 1:0.364165 2:-0.018556 3:0 4:0.969574 5:0.037037 
1 1:0.466136 2:-0.027725 3:0 4:0.971749 5:0.037037 
1 1:0.450905 2:0.050566 3:0 4:0.971749 5:0.037037 
1 1:0.536223 2:0.024379 3:0 4:0.971749 5:0.037037 
1 1:0.510695 2:-0.033589 3:0 4:0.971749 5:0.037037 
1 1:0.440928 2:0.015891 3:0 4:0.969574 5:0.066667 
1 1:0.329557 2:-0.066378 3:0 4:0.969574 5:0.066667 
1 1:0.534538 2:0.074626 3:0 4:0.971749 5:0.066667 
1 1:0.380181 2:0.109713 3:0 4:0.969574 5:0.066667 
1 1:0.341051 2:-0.103738 3:0 4:0.969574 5:0.066667 
1 1:0.416076 2:-0.159934 3:0 4:0.971749 5:0.02716 
1 1:0.51266 2:-0.14963 3:0 4:0.971749 5:0.02716 
1 1:0.371048 2:-0.019618 3:0.023231 4:0.963377 5:0.037037 
1 1:0.389315 2:-0.027769 3:0 4:0.965272 5:0.037037 
1 1:0.189507 2:-0.347645 3:0 4:0.970657 5:0.037037 
1 1:0.250868 2:-0.261599 3:0 4:0.971749 5:0.037037 
1 1:0.432497 2:0.159947 3:0 4:0.971749 5:0.037037 
1 1:0.21435 2:0.174213 3:0 4:0.971749 5:0.037037 
1 1:0.495359 2:-0.059683 3:0 4:0.969068 5:0.037037 
1 1:0.504295 2:-0.206729 3:0 4:0.97016 5:0.037037 
1 1:0.125108 2:0.131719 3:0 4:0.965272 5:0.066667 
1 1:0.083914 2:-0.382224 3:0 4:0.97016 5:0.066667 
1 1:0.345712 2:-0.045082 3:0 4:0.963683 5:0.066667 
1 1:0.122534 2:-0.228702 3:0 4:0.962591 5:0.066667 
1 1:0.198443 2:0.167921 3:0 4:0.963683 5:0.066667 
1 1:0.37746 2:0.040172 3:0 4:0.971749 5:0.02716 
1 1:0.371457 2:0.117977 3:0 4:0.971749 5:0.02716 
1 1:0.317247 2:-0.119326 3:0 4:0.971749 5:0.037037 
1 1:0.314917 2:-0.111405 3:0 4:0.971749 5:0.037037 
1 1:0.427554 2:0.109413 3:0 4:0.971749 5:0.037037 
1 1:0.387593 2:0.107305 3:0 4:0.971749 5:0.037037 
1 1:0.474782 2:0.170025 3:0 4:0.971749 5:0.037037 
1 1:0.380478 2:-0.158502 3:0 4:0.971749 5:0.037037 
1 1:0.466821 2:0.038542 3:0 4:0.971749 5:0.037037 
1 1:0.489828 2:0.071166 3:0 4:0.971749 5:0.037037 
1 1:0.424568 2:0.110844 3:0 4:0.971749 5:0.066667 
1 1:0.31985 2:-0.122376 3:0 4:0.971749 5:0.066667 
1 1:0.387718 2:-0.036285 3:0 4:0.971749 5:0.066667 
1 1:0.383657 2:0.063867 3:0 4:0.971749 5:0.066667 
1 1:0.363718 2:-0.037884 3:0 4:0.971749 5:0.066667 
1 1:0.483284 2:-0.157554 3:0 4:0.962591 5:0.02716 
1 1:0.499367 2:-0.239035 3:0 4:0.962591 5:0.02716 
1 1:0.610912 2:-0.075312 3:0 4:0.962591 5:0.02716 
1 1:0.410181 2:0.012266 3:0 4:0.962591 5:0.041975 
1 1:0.318033 2:-0.081184 3:0 4:0.962591 5:0.041975 
1 1:0.525813 2:-0.015909 3:0 4:0.962591 5:0.041975 
1 1:0.345923 2:-0.165983 3:0 4:0.962591 5:0.041975 
1 1:0.501051 2:0.126469 3:0 4:0.962591 5:0.041975 
1 1:0.052369 2:-0.02444 3:0 4:0.953432 5:0.096296 
1 1:0.294743 2:0.304792 3:0 4:0.962591 5:0.096296 
1 1:0.123962 2:0.083155 3:0.009444 4:0.96182 5:0.096296 
1 1:0.286215 2:0.050876 3:0 4:0.962591 5:0.096296 
1 1:0.573947 2:-0.128031 3:0 4:0.932389 5:0.014815 
1 1:0.671817 2:0.026995 3:0 4:0.932389 5:0.019753 
1 1:0.622583 2:0.072614 3:0 4:0.932389 5:0.019753 
1 1:0.625143 2:0.109092 3:0 4:0.932389 5:0.019753 
1 1:0.752973 2:0.177143 3:0 4:0.932389 5:0.019753 
1 1:0.741636 2:0.089466 3:0 4:0.932389 5:0.019753 
1 1:0.694188 2:0.038298 3:0 4:0.932389 5:0.019753 
1 1:0.470819 2:0.30699 3:0 4:0.932389 5:0.034568 
1 1:0.350716 2:0.058785 3:0 4:0.932389 5:0.034568 
1 1:0.612977 2:0.194651 3:0 4:0.932389 5:0.034568 
1 1:0.430583 2:0.075241 3:0 4:0.932389 5:0.034568 
1 1:0.443032 2:0.326128 3:0 4:0.932389 5:0.034568 
1 1:0.513407 2:-0.135318 3:0 4:0.932389 5:0.017284 
1 1:0.563374 2:-0.018245 3:0 4:0.932389 5:0.022222 
1 1:0.654091 2:0.101422 3:0 4:0.932389 5:0.022222 
1 1:0.798729 2:0.190058 3:0 4:0.932389 5:0.022222 
1 1:0.612768 2:0.127256 3:0 4:0.932389 5:0.037037 
1 1:0.471021 2:0.14141 3:0 4:0.930494 5:0.037037 
1 1:0.635994 2:0.158422 3:0 4:0.932389 5:0.037037 
1 1:0.559679 2:0.086712 3:0 4:0.932389 5:0.037037 
1 1:0.624964 2:0.252167 3:0 4:0.932389 5:0.037037 
1 1:0.668071 2:0.003453 3:0 4:0.932389 5:0.022222 
1 1:0.55246 2:0.14238 3:0 4:0.932389 5:0.037037 
1 1:0.601711 2:0.030528 3:0 4:0.932389 5:0.037037 
1 1:0.458222 2:-0.08905 3:0 4:0.932389 5:0.037037 
1 1:0.430849 2:0.009021 3:0 4:0.932389 5:0.037037 
1 1:0.576653 2:0.307216 3:0 4:0.931618 5:0.017284 
1 1:0.63572 2:0.150936 3:0 4:0.929723 5:0.017284 
1 1:0.467558 2:0.369608 3:0 4:0.931618 5:0.022222 
1 1:0.579428 2:0.333985 3:0 4:0.931618 5:0.022222 
1 1:0.719193 2:0.129384 3:0 4:0.931618 5:0.022222 
1 1:0.526938 2:-0.068007 3:0 4:0.929723 5:0.022222 
1 1:0.57203 2:0.105018 3:0 4:0.931618 5:0.022222 
1 1:0.599781 2:0.242174 3:0 4:0.931618 5:0.022222 
1 1:0.607783 2:-0.120871 3:0 4:0.931618 5:0.022222 
1 1:0.596464 2:-0.117581 3:0 4:0.931618 5:0.022222 
1 1:0.405397 2:0.035382 3:0 4:0.931618 5:0.037037 
1 1:0.453164 2:-0.130679 3:0 4:0.929723 5:0.037037 
1 1:0.388332 2:0.132176 3:0 4:0.931618 5:0.037037 
1 1:0.461584 2:-0.05723 3:0 4:0.931618 5:0.037037 
1 1:0.494404 2:0.116273 3:0 4:0.931618 5:0.037037 
1 1:0.251061 2:0.03797 3:0 4:0.931618 5:0.051852 
1 1:0.273874 2:-0.094078 3:0 4:0.930066 5:0.051852 
1 1:0.426169 2:0.039383 3:0 4:0.92817 5:0.051852 
1 1:0.597186 2:0.042679 3:0 4:0.930836 5:0.051852 
1 1:0.264385 2:0.114285 3:0 4:0.930066 5:0.051852 
1 1:0.135715 2:0.450633 3:0.391478 4:0.676887 5:0.207407 
1 1:0.04873 2:0.360685 3:0.353398 4:0.822878 5:0.207407 
1 1:0.046044 2:0.35004 3:0.346295 4:0.839153 5:0.207407 
1 1:0.030117 2:0.340542 3:0.403182 4:0.843371 5:0.207407 
1 1:0.407941 2:0.010091 3:0 4:0.995725 5:0.019753 
1 1:0.438275 2:0.04727 3:0 4:1 5:0.019753 
1 1:0.260824 2:0.176024 3:0 4:0.895163 5:0.02963 
1 1:0.282363 2:0.00577 3:0 4:0.899438 5:0.02963 
1 1:0.246574 2:0.065496 3:0 4:0.899281 5:0.02963 
1 1:0.504748 2:0.30012 3:0 4:0.899281 5:0.02963 
1 1:0.320234 2:0.565275 3:0 4:0.901109 5:0.02963 
1 1:0.475731 2:0.163547 3:0 4:0.901109 5:0.02963 
1 1:0.345754 2:-0.049171 3:0 4:0.774239 5:0.02963 
1 1:0.362921 2:0.00846 3:0 4:0.774239 5:0.02963 
1 1:0.139346 2:0.743504 3:1 4:0.508069 5:0.059259 
1 1:0.159616 2:0.816741 3:0.952399 4:0.496933 5:0.059259 
1 1:0.18562 2:0.43232 3:0.670038 4:0.520125 5:0.059259 
1 1:0.177309 2:0.541478 3:0.882777 4:0.500942 5:0.059259 
1 1:0.320319 2:0.661023 3:0.819548 4:0.517389 5:0.059259 
1 1:0.488571 2:0.380353 3:0 4:0.93371 5:0.024691 
1 1:0.186982 2:-0.169352 3:0 4:0.852659 5:0.034568 
1 1:0.446337 2:0.400561 3:0 4:0.853143 5:0.034568 
1 1:0.372866 2:0.445606 3:0 4:0.867863 5:0.034568 
1 1:0.604784 2:0.295501 3:0 4:0.867863 5:0.034568 
1 1:0.252502 2:0.284351 3:0 4:0.860629 5:0.034568 
1 1:0.443222 2:0.579486 3:0 4:0.860629 5:0.034568 
1 1:0.264063 2:-0.188965 3:0 4:0.960336 5:0.024691 
1 1:0.244327 2:0.164957 3:0 4:0.940826 5:0.034568 
1 1:0.314488 2:-0.159037 3:0 4:0.945101 5:0.034568 
1 1:0.277026 2:-0.38774 3:0 4:0.924858 5:0.034568 
1 1:0.228722 2:-0.084972 3:0 4:0.924858 5:0.034568 
1 1:0.313974 2:0.267592 3:0 4:0.937737 5:0.034568 
1 1:0.340436 2:0.293827 3:0 4:0.937737 5:0.034568 
1 1:0.29995 2:-0.109364 3:0 4:0.929859 5:0.034568 
1 1:0.376337 2:-0.099807 3:0 4:0.929859 5:0.034568 
1 1:0.238493 2:0.385806 3:0.052874 4:0.862128 5:0.064198 
1 1:0.14083 2:0.211843 3:0 4:0.863231 5:0.064198 
1 1:0.246639 2:0.423081 3:0 4:0.883474 5:0.064198 
1 1:0.175661 2:0.093945 3:0.018977 4:0.869047 5:0.064198 
1 1:0.275566 2:0.435309 3:0 4:0.855752 5:0.064198 
1 1:0.458226 2:0.308731 3:0 4:0.941951 5:0.024691 
1 1:0.594956 2:0.150145 3:0 4:0.942435 5:0.024691 
1 1:0.447349 2:0.127444 3:0 4:0.941951 5:0.034568 
1 1:0.544601 2:0.572737 3:0 4:0.942435 5:0.034568 
1 1:0.491135 2:0.24357 3:0 4:0.942435 5:0.034568 
1 1:0.597128 2:0.628428 3:0 4:0.942435 5:0.034568 
1 1:0.476724 2:0.393064 3:0 4:0.940887 5:0.034568 
1 1:0.461928 2:0.370323 3:0 4:0.940887 5:0.034568 
1 1:0.60888 2:0.06285 3:0 4:0.938121 5:0.034568 
1 1:0.641413 2:0.339885 3:0 4:0.938121 5:0.034568 
1 1:0.418556 2:0.516457 3:0 4:0.940887 5:0.064198 
1 1:0.421094 2:0.645806 3:0 4:0.936573 5:0.064198 
1 1:0.527206 2:0.603224 3:0 4:0.936573 5:0.064198 
1 1:0.532637 2:0.604919 3:0 4:0.938121 5:0.064198 
1 1:0.417745 2:0.418722 3:0 4:0.936573 5:0.064198 
1 1:0.501022 2:-0.16694 3:0 4:0.882018 5:0.019753 
1 1:0.432584 2:-0.064724 3:0 4:0.882018 5:0.024691 
1 1:0.454743 2:-0.09054 3:0 4:0.876652 5:0.024691 
1 1:0.485877 2:0.070563 3:0 4:0.882018 5:0.024691 
1 1:0.496915 2:-0.032381 3:0 4:0.882018 5:0.024691 
1 1:0.455662 2:0.237045 3:0 4:0.876652 5:0.039506 
1 1:0.376633 2:-0.028585 3:0 4:0.876652 5:0.039506 
1 1:0.419949 2:0.116032 3:0 4:0.882018 5:0.039506 
1 1:0.422066 2:-0.163938 3:0 4:0.876652 5:0.039506 
1 1:0.456401 2:0.1815 3:0 4:0.876652 5:0.039506 
1 1:0.101603 2:0.609127 3:0.46932 4:0.630978 5:0.093827 
1 1:0.178376 2:0.910108 3:0.360903 4:0.722859 5:0.093827 
1 1:0.244948 2:1 3:0.461875 4:0.737778 5:0.093827 
1 1:0.172029 2:0.641915 3:0.458581 4:0.743091 5:0.093827 
1 1:0.416938 2:-0.28814 3:0 4:0.963789 5:0.022222 
1 1:0.267936 2:-0.42758 3:0 4:0.968063 5:0.022222 
1 1:0.191647 2:-0.403002 3:0 4:0.860104 5:0.032099 
1 1:0.16039 2:-0.447265 3:0 4:0.864379 5:0.032099 
1 1:0.249438 2:-0.519275 3:0 4:0.876478 5:0.032099 
1 1:0.204247 2:-0.13697 3:0 4:0.877544 5:0.032099 
1 1:0.443745 2:0.077653 3:0 4:0.877544 5:0.032099 
1 1:0.089524 2:-0.150041 3:0.138277 4:0.593195 5:0.061728 
1 1:0.075562 2:-0.626822 3:0.143051 4:0.588535 5:0.061728 
1 1:0.308937 2:0.00253 3:0.38355 4:0.557312 5:0.061728 
1 1:0.429796 2:-0.147102 3:0 4:0.929776 5:0.02716 
1 1:0.38141 2:-0.103272 3:0 4:0.929776 5:0.02716 
1 1:0.143217 2:-0.514194 3:0 4:0.85208 5:0.037037 
1 1:0.317212 2:0.272316 3:0 4:0.85208 5:0.037037 
1 1:0.373312 2:-0.217234 3:0 4:0.872939 5:0.037037 
1 1:0.258199 2:-0.243653 3:0 4:0.856212 5:0.037037 
1 1:0.555014 2:0.155824 3:0 4:0.856212 5:0.037037 
1 1:0.28472 2:-0.117525 3:0 4:0.934346 5:0.02716 
1 1:0.234381 2:-0.171821 3:0 4:0.908358 5:0.037037 
1 1:0.16526 2:-0.593924 3:0 4:0.912633 5:0.037037 
1 1:0.275463 2:-0.214663 3:0 4:0.903873 5:0.037037 
1 1:0.240028 2:-0.326359 3:0 4:0.904965 5:0.037037 
1 1:0.266885 2:-0.100326 3:0 4:0.920118 5:0.037037 
1 1:0.271873 2:0.133018 3:0 4:0.920118 5:0.037037 
1 1:0.207294 2:0.189165 3:0 4:0.848442 5:0.066667 
1 1:0.197509 2:-0.143375 3:0 4:0.861246 5:0.066667 
1 1:0.171526 2:-0.153773 3:0 4:0.868914 5:0.066667 
1 1:0.167326 2:-0.313944 3:0 4:0.852669 5:0.066667 
1 1:0.225132 2:0.242706 3:0 4:0.84729 5:0.066667 
1 1:0.44967 2:0.04141 3:0 4:0.930384 5:0.02716 
1 1:0.487402 2:0.153041 3:0 4:0.930384 5:0.02716 
1 1:0.425384 2:0.080614 3:0 4:0.930384 5:0.037037 
1 1:0.444991 2:0.501111 3:0 4:0.930384 5:0.037037 
1 1:0.500166 2:0.189705 3:0 4:0.930384 5:0.037037 
1 1:0.523368 2:-0.027884 3:0 4:0.930384 5:0.037037 
1 1:0.535904 2:0.204145 3:0 4:0.928836 5:0.037037 
1 1:0.532957 2:0.545929 3:0 4:0.928836 5:0.037037 
1 1:0.549089 2:0.250362 3:0 4:0.92607 5:0.037037 
1 1:0.635085 2:0.170366 3:0 4:0.92607 5:0.037037 
1 1:0.438166 2:0.310924 3:0 4:0.928836 5:0.066667 
1 1:0.463819 2:0.577691 3:0 4:0.924522 5:0.066667 
1 1:0.476314 2:0.417565 3:0 4:0.92607 5:0.066667 
1 1:0.436581 2:0.29065 3:0 4:0.924522 5:0.066667 
1 1:0.377322 2:-0.037397 3:0 4:0.870383 5:0.022222 
1 1:0.381749 2:-0.26955 3:0 4:0.870383 5:0.022222 
1 1:0.384359 2:-0.192207 3:0 4:0.870383 5:0.02716 
1 1:0.359158 2:-0.356233 3:0 4:0.870383 5:0.02716 
1 1:0.39032 2:-0.190845 3:0 4:0.870383 5:0.02716 
1 1:0.330096 2:-0.139184 3:0 4:0.870383 5:0.041975 
1 1:0.311266 2:-0.197447 3:0 4:0.870383 5:0.041975 
1 1:0.370908 2:-0.201506 3:0 4:0.870383 5:0.041975 
1 1:0.338676 2:-0.137344 3:0 4:0.870383 5:0.041975 
1 1:0.095298 2:0.19052 3:0.337327 4:0.667013 5:0.096296 
1 1:0.149276 2:0.42883 3:0.07289 4:0.782609 5:0.096296 
1 1:0.136271 2:0.574451 3:0.243757 4:0.782768 5:0.096296 
1 1:0.201223 2:0.543306 3:0.243109 4:0.782553 5:0.096296 
1 1:0.417727 2:0.046891 3:0 4:0.97117 5:0.022222 
1 1:0.516627 2:0.219952 3:0 4:0.97117 5:0.022222 
1 1:0.374707 2:0.068888 3:0 4:0.967815 5:0.032099 
1 1:0.343979 2:0.170996 3:0 4:0.967815 5:0.032099 
1 1:0.259449 2:0.054352 3:0 4:0.958768 5:0.032099 
1 1:0.335838 2:0.174893 3:0 4:0.958768 5:0.032099 
1 1:0.539163 2:0.459175 3:0 4:0.962799 5:0.032099 
1 1:0.377366 2:0.37539 3:0 4:0.962799 5:0.032099 
1 1:0.32291 2:0.131637 3:0 4:0.917474 5:0.032099 
1 1:0.470396 2:0.131842 3:0 4:0.917474 5:0.032099 
1 1:0.288275 2:0.356652 3:0 4:0.915753 5:0.061728 
1 1:0.21722 2:0.579345 3:0 4:0.896701 5:0.061728 
1 1:0.297651 2:0.528207 3:0.026671 4:0.903572 5:0.061728 
1 1:0.225469 2:0.27737 3:0 4:0.901717 5:0.061728 
1 1:0.32739 2:0.527845 3:0 4:0.924636 5:0.061728 
1 1:0.348515 2:0.228633 3:0 4:0.943167 5:0.02716 
1 1:0.489409 2:0.178798 3:0 4:0.941756 5:0.02716 
1 1:0.310979 2:0.074421 3:0 4:0.939812 5:0.037037 
1 1:0.407884 2:0.079229 3:0 4:0.940296 5:0.037037 
1 1:0.468714 2:0.338057 3:0 4:0.931981 5:0.037037 
1 1:0.427737 2:0.280885 3:0 4:0.930086 5:0.037037 
1 1:0.345182 2:0.309069 3:0 4:0.943651 5:0.037037 
1 1:0.525872 2:0.163287 3:0 4:0.901081 5:0.037037 
1 1:0.487063 2:0.019826 3:0 4:0.901081 5:0.037037 
1 1:0.404214 2:0.462946 3:0 4:0.897726 5:0.066667 
1 1:0.398049 2:0.371786 3:0 4:0.886056 5:0.066667 
1 1:0.390581 2:0.821473 3:0 4:0.917345 5:0.066667 
1 1:0.383195 2:-0.259814 3:0 4:0.965224 5:0.02716 
1 1:0.463464 2:0.4004 3:0 4:0.965224 5:0.02716 
1 1:0.2635 2:0.142409 3:0 4:0.965224 5:0.037037 
1 1:0.400955 2:0.573519 3:0 4:0.965224 5:0.037037 
1 1:0.297774 2:-0.329267 3:0 4:0.959126 5:0.037037 
1 1:0.317903 2:0.07798 3:0 4:0.959126 5:0.037037 
1 1:0.392627 2:0.419723 3:0 4:0.956853 5:0.037037 
1 1:0.395294 2:0.107722 3:0 4:0.956853 5:0.037037 
1 1:0.373958 2:0.126479 3:0 4:0.954098 5:0.037037 
1 1:0.48208 2:0.332534 3:0 4:0.954098 5:0.037037 
1 1:0.284403 2:0.174472 3:0 4:0.950755 5:0.066667 
1 1:0.195898 2:0.265887 3:0 4:0.939629 5:0.066667 
1 1:0.32454 2:0.661283 3:0 4:0.945727 5:0.066667 
1 1:0.247557 2:0.205162 3:0 4:0.948 5:0.066667 
1 1:0.289269 2:0.236121 3:0 4:0.939629 5:0.066667 
1 1:0.332103 2:0.238705 3:0 4:0.95003 5:0.02716 
1 1:0.509478 2:0.198341 3:0 4:0.948619 5:0.02716 
1 1:0.43222 2:0.549344 3:0 4:0.95003 5:0.037037 
1 1:0.490091 2:0.301923 3:0 4:0.950514 5:0.037037 
1 1:0.433282 2:0.374899 3:0 4:0.950514 5:0.037037 
1 1:0.465344 2:0.357219 3:0 4:0.948619 5:0.037037 
1 1:0.419973 2:0.619041 3:0 4:0.950514 5:0.037037 
1 1:0.378452 2:0.293783 3:0 4:0.950514 5:0.037037 
1 1:0.477448 2:0.3256 3:0 4:0.950514 5:0.037037 
1 1:0.4784 2:0.445886 3:0 4:0.950514 5:0.037037 
1 1:0.315351 2:0.598222 3:0 4:0.950514 5:0.066667 
1 1:0.353967 2:0.543076 3:0 4:0.948619 5:0.066667 
1 1:0.442275 2:0.593113 3:0 4:0.950514 5:0.066667 
1 1:0.346284 2:0.545443 3:0 4:0.950514 5:0.066667 
1 1:0.324853 2:0.577234 3:0 4:0.950514 5:0.066667 
1 1:0.471454 2:-0.346212 3:0 4:0.940157 5:0.022222 
1 1:0.577309 2:0.268048 3:0 4:0.940157 5:0.022222 
1 1:0.422429 2:-0.066442 3:0 4:0.940157 5:0.02716 
1 1:0.564723 2:0.208699 3:0 4:0.940157 5:0.02716 
1 1:0.496815 2:-0.232007 3:0 4:0.934791 5:0.02716 
1 1:0.528035 2:0.050462 3:0 4:0.934791 5:0.02716 
1 1:0.488718 2:0.085972 3:0 4:0.940157 5:0.02716 
1 1:0.569616 2:-0.1237 3:0 4:0.940157 5:0.02716 
1 1:0.433029 2:-0.179374 3:0 4:0.934791 5:0.041975 
1 1:0.439296 2:-0.000679 3:0 4:0.934791 5:0.041975 
1 1:0.500701 2:0.136305 3:0 4:0.940157 5:0.041975 
1 1:0.459961 2:-0.120809 3:0 4:0.934791 5:0.041975 
1 1:0.439087 2:-0.12967 3:0 4:0.934791 5:0.041975 
1 1:0.133755 2:0.536028 3:0 4:0.893326 5:0.096296 
1 1:0.171141 2:0.452079 3:0 4:0.889603 5:0.096296 
1 1:0.220427 2:0.201816 3:0 4:0.901326 5:0.096296 
1 1:0.323862 2:0.768463 3:0 4:0.905868 5:0.096296 
1 1:0.24032 2:-0.163885 3:0 4:0.971749 5:0.022222 
1 1:0.29613 2:0.056764 3:0 4:0.971749 5:0.022222 
1 1:0.190037 2:-0.138798 3:0 4:0.965272 5:0.032099 
1 1:0.210808 2:-0.098426 3:0 4:0.965272 5:0.032099 
1 1:0.24833 2:-0.166216 3:0 4:0.968482 5:0.032099 
1 1:0.246321 2:-0.039326 3:0 4:0.969574 5:0.032099 
1 1:0.215612 2:0.039069 3:0 4:0.971749 5:0.032099 
1 1:0.299149 2:0.113176 3:0 4:0.971749 5:0.032099 
1 1:0.37507 2:-0.431082 3:0 4:0.969068 5:0.032099 
1 1:0.205557 2:-0.140691 3:0 4:0.97016 5:0.032099 
1 1:0.106967 2:0.027132 3:0 4:0.963096 5:0.061728 
1 1:0.128929 2:-0.0334 3:0 4:0.967984 5:0.061728 
1 1:0.120485 2:0.172543 3:0 4:0.963683 5:0.061728 
1 1:0.109061 2:-0.303176 3:0 4:0.960415 5:0.061728 
1 1:0.11765 2:0.051616 3:0 4:0.961507 5:0.061728 
1 1:0.355954 2:-0.33558 3:0 4:0.971749 5:0.02716 
1 1:0.269108 2:0.044685 3:0 4:0.971749 5:0.02716 
1 1:0.148411 2:-0.280551 3:0 4:0.971749 5:0.037037 
1 1:0.179604 2:0.006516 3:0 4:0.971749 5:0.037037 
1 1:0.396063 2:0.024059 3:0 4:0.969574 5:0.037037 
1 1:0.405498 2:0.012335 3:0 4:0.969574 5:0.037037 
1 1:0.192569 2:-0.129162 3:0 4:0.971749 5:0.037037 
1 1:0.236342 2:0.092544 3:0 4:0.971749 5:0.037037 
1 1:0.274019 2:0.043767 3:0 4:0.971749 5:0.037037 
1 1:0.271249 2:-0.013286 3:0 4:0.971749 5:0.037037 
1 1:0.173352 2:-0.169259 3:0 4:0.969574 5:0.066667 
1 1:0.165987 2:-0.261981 3:0 4:0.969574 5:0.066667 
1 1:0.170519 2:0.090452 3:0 4:0.971749 5:0.066667 
1 1:0.186326 2:-0.054662 3:0 4:0.969574 5:0.066667 
1 1:0.176389 2:-0.187236 3:0 4:0.969574 5:0.066667 
1 1:0.249573 2:0.065774 3:0 4:0.971749 5:0.02716 
1 1:0.201179 2:-0.115428 3:0 4:0.971749 5:0.02716 
1 1:0.187332 2:0.012803 3:0.023231 4:0.963377 5:0.037037 
1 1:0.221186 2:-0.07283 3:0 4:0.965272 5:0.037037 
1 1:0.213003 2:0.12544 3:0 4:0.970657 5:0.037037 
1 1:0.22392 2:0.111657 3:0 4:0.971749 5:0.037037 
1 1:0.207921 2:-0.045455 3:0 4:0.971749 5:0.037037 
1 1:0.276157 2:-0.270101 3:0 4:0.971749 5:0.037037 
1 1:0.232409 2:-0.295799 3:0 4:0.969068 5:0.037037 
1 1:0.270969 2:-0.037139 3:0 4:0.97016 5:0.037037 
1 1:0.159339 2:-0.065438 3:0 4:0.965272 5:0.066667 
1 1:0.156253 2:0.131876 3:0 4:0.97016 5:0.066667 
1 1:0.123953 2:-0.274737 3:0 4:0.963683 5:0.066667 
1 1:0.167097 2:0.058869 3:0 4:0.962591 5:0.066667 
1 1:0.174357 2:-0.023651 3:0 4:0.963683 5:0.066667 
1 1:0.167528 2:-0.251265 3:0 4:0.971749 5:0.02716 
1 1:0.282882 2:0.30647 3:0 4:0.971749 5:0.02716 
1 1:0.347737 2:0.118782 3:0 4:0.971749 5:0.037037 
1 1:0.196617 2:0.093256 3:0 4:0.971749 5:0.037037 
1 1:0.153236 2:0.133667 3:0 4:0.971749 5:0.037037 
1 1:0.32531 2:-0.07913 3:0 4:0.971749 5:0.037037 
1 1:0.180472 2:-0.036295 3:0 4:0.971749 5:0.037037 
1 1:0.350975 2:0.254161 3:0 4:0.971749 5:0.037037 
1 1:0.163349 2:0.114735 3:0 4:0.971749 5:0.037037 
1 1:0.232383 2:-0.117262 3:0 4:0.971749 5:0.037037 
1 1:0.085259 2:-0.025431 3:0 4:0.971749 5:0.066667 
1 1:0.09652 2:0.094442 3:0 4:0.971749 5:0.066667 
1 1:0.176164 2:0.390853 3:0 4:0.971749 5:0.066667 
1 1:0.085068 2:-0.031368 3:0 4:0.971749 5:0.066667 
1 1:0.085949 2:-0.01376 3:0 4:0.971749 5:0.066667 
1 1:0.321283 2:-0.083645 3:0 4:0.962591 5:0.022222 
1 1:0.519382 2:-0.056894 3:0 4:0.962591 5:0.022222 
1 1:0.27832 2:-0.279957 3:0 4:0.962591 5:0.02716 
1 1:0.361551 2:-0.223904 3:0 4:0.962591 5:0.02716 
1 1:0.510405 2:-0.05207 3:0 4:0.962591 5:0.02716 
1 1:0.496848 2:0.003988 3:0 4:0.962591 5:0.02716 
1 1:0.321132 2:-0.254749 3:0 4:0.962591 5:0.02716 
1 1:0.39772 2:-0.240844 3:0 4:0.962591 5:0.02716 
1 1:0.336218 2:-0.559115 3:0 4:0.962591 5:0.02716 
1 1:0.350428 2:-0.478331 3:0 4:0.962591 5:0.02716 
1 1:0.268851 2:-0.240388 3:0 4:0.962591 5:0.041975 
1 1:0.246087 2:0.023089 3:0 4:0.962591 5:0.041975 
1 1:0.244917 2:-0.311263 3:0 4:0.962591 5:0.041975 
1 1:0.266348 2:-0.206307 3:0 4:0.962591 5:0.041975 
1 1:0.288361 2:-0.194049 3:0 4:0.962591 5:0.041975 
1 1:0.068215 2:-0.00549 3:0 4:0.953432 5:0.096296 
1 1:0.121659 2:0.325626 3:0 4:0.962591 5:0.096296 
1 1:0.070277 2:0.283526 3:0.009444 4:0.96182 5:0.096296 
1 1:0.046008 2:0.060303 3:0 4:0.962591 5:0.096296 
1 1:0.645413 2:0.16512 3:0 4:0.932389 5:0.014815 
1 1:0.596948 2:0.056479 3:0 4:0.932389 5:0.019753 
1 1:0.607069 2:0.237725 3:0 4:0.932389 5:0.019753 
1 1:0.668806 2:-0.011552 3:0 4:0.932389 5:0.019753 
1 1:0.631373 2:0.173063 3:0 4:0.932389 5:0.019753 
1 1:0.599149 2:0.266537 3:0 4:0.932389 5:0.034568 
1 1:0.793121 2:0.529063 3:0 4:0.932389 5:0.034568 
1 1:0.571233 2:0.276808 3:0 4:0.932389 5:0.034568 
1 1:0.616026 2:0.321927 3:0 4:0.932389 5:0.034568 
1 1:0.787301 2:0.16335 3:0 4:0.930494 5:0.017284 
1 1:0.744116 2:0.187922 3:0 4:0.932389 5:0.022222 
1 1:0.630929 2:0.35222 3:0 4:0.932389 5:0.022222 
1 1:0.587395 2:0.359906 3:0 4:0.932389 5:0.037037 
1 1:0.710467 2:0.210442 3:0 4:0.932389 5:0.037037 
1 1:0.770615 2:0.296684 3:0 4:0.932389 5:0.037037 
1 1:0.581181 2:0.325044 3:0 4:0.932389 5:0.037037 
1 1:0.661322 2:0.061173 3:0 4:0.932389 5:0.017284 
1 1:0.602967 2:0.101474 3:0 4:0.932389 5:0.022222 
1 1:0.637533 2:0.337674 3:0 4:0.932389 5:0.022222 
1 1:0.680026 2:0.051952 3:0 4:0.932389 5:0.022222 
1 1:0.687512 2:0.199235 3:0 4:0.932389 5:0.022222 
1 1:0.590754 2:0.311589 3:0 4:0.932389 5:0.037037 
1 1:0.58007 2:0.361061 3:0 4:0.932389 5:0.037037 
1 1:0.578031 2:0.03213 3:0 4:0.932389 5:0.037037 
1 1:0.572718 2:0.096897 3:0 4:0.931618 5:0.017284 
1 1:0.811315 2:0.382439 3:0 4:0.929723 5:0.017284 
1 1:0.5628 2:0.096505 3:0 4:0.931618 5:0.022222 
1 1:0.57584 2:0.10601 3:0 4:0.931618 5:0.022222 
1 1:0.780615 2:0.402211 3:0 4:0.931618 5:0.022222 
1 1:0.78861 2:0.306219 3:0 4:0.929723 5:0.022222 
1 1:0.61462 2:0.388888 3:0 4:0.931618 5:0.022222 
1 1:0.608483 2:0.2655 3:0 4:0.931618 5:0.022222 
1 1:0.800498 2:0.317446 3:0 4:0.931618 5:0.022222 
1 1:0.800927 2:0.219864 3:0 4:0.931618 5:0.022222 
1 1:0.730398 2:0.596535 3:0 4:0.931618 5:0.037037 
1 1:0.726077 2:0.602091 3:0 4:0.929723 5:0.037037 
1 1:0.520163 2:0.384601 3:0 4:0.931618 5:0.037037 
1 1:0.695367 2:0.426384 3:0 4:0.931618 5:0.037037 
1 1:0.744659 2:0.636246 3:0 4:0.931618 5:0.037037 
1 1:0.433771 2:0.688471 3:0 4:0.931618 5:0.051852 
1 1:0.46942 2:0.445405 3:0 4:0.930066 5:0.051852 
1 1:0.613878 2:0.331295 3:0 4:0.92817 5:0.051852 
1 1:0.479787 2:0.067603 3:0 4:0.930836 5:0.051852 
1 1:0.432748 2:0.658999 3:0 4:0.930066 5:0.051852 
1 1:0.066635 2:0.519694 3:0.391478 4:0.676887 5:0.207407 
1 1:0.260054 2:0.732507 3:0.353398 4:0.822878 5:0.207407 
1 1:0.218172 2:0.805779 3:0.346295 4:0.839153 5:0.207407 
1 1:0.005632 2:-0.028115 3:0.403182 4:0.843371 5:0.207407 
1 1:0.430099 2:-0.097838 3:0 4:0.995725 5:0.019753 
1 1:0.387067 2:0.10637 3:0 4:1 5:0.019753 
1 1:0.210916 2:-0.100857 3:0 4:0.895163 5:0.02963 
1 1:0.333341 2:0.294769 3:0 4:0.899438 5:0.02963 
1 1:0.461101 2:0.088682 3:0 4:0.899281 5:0.02963 
1 1:0.58777 2:0.217716 3:0 4:0.899281 5:0.02963 
1 1:0.278112 2:0.042712 3:0 4:0.901109 5:0.02963 
1 1:0.289112 2:0.255299 3:0 4:0.901109 5:0.02963 
1 1:0.531087 2:0.13872 3:0 4:0.774239 5:0.02963 
1 1:0.141617 2:0.705419 3:1 4:0.508069 5:0.059259 
1 1:0.162487 2:0.756091 3:0.952399 4:0.496933 5:0.059259 
1 1:0.191428 2:0.140862 3:0.670038 4:0.520125 5:0.059259 
1 1:0.339994 2:0.596838 3:0.882777 4:0.500942 5:0.059259 
1 1:0.165444 2:0.649895 3:0.819548 4:0.517389 5:0.059259 
1 1:0.230614 2:-0.248642 3:0 4:0.93371 5:0.024691 
1 1:0.221105 2:-0.066531 3:0 4:0.852659 5:0.034568 
1 1:0.330442 2:0.214974 3:0 4:0.853143 5:0.034568 
1 1:0.287148 2:0.138372 3:0 4:0.867863 5:0.034568 
1 1:0.309723 2:0.296808 3:0 4:0.867863 5:0.034568 
1 1:0.245826 2:0.25116 3:0 4:0.860629 5:0.034568 
1 1:0.313398 2:0.010298 3:0 4:0.860629 5:0.034568 
1 1:0.453679 2:0.017673 3:0 4:0.738872 5:0.034568 
1 1:0.338104 2:-0.143457 3:0 4:0.738872 5:0.034568 
1 1:0.515315 2:-0.010532 3:0 4:0.960336 5:0.024691 
1 1:0.493021 2:0.191518 3:0 4:0.940826 5:0.034568 
1 1:0.549569 2:0.184352 3:0 4:0.945101 5:0.034568 
1 1:0.569074 2:0.192701 3:0 4:0.924858 5:0.034568 
1 1:0.465363 2:0.134796 3:0 4:0.924858 5:0.034568 
1 1:0.489039 2:0.145298 3:0 4:0.937737 5:0.034568 
1 1:0.535852 2:0.385554 3:0 4:0.937737 5:0.034568 
1 1:0.700203 2:0.448511 3:0 4:0.929859 5:0.034568 
1 1:0.625279 2:0.188088 3:0 4:0.929859 5:0.034568 
1 1:0.489087 2:0.579152 3:0.052874 4:0.862128 5:0.064198 
1 1:0.450131 2:0.552956 3:0 4:0.863231 5:0.064198 
1 1:0.425154 2:0.127683 3:0 4:0.883474 5:0.064198 
1 1:0.480454 2:0.577119 3:0.018977 4:0.869047 5:0.064198 
1 1:0.510765 2:0.560168 3:0 4:0.855752 5:0.064198 
1 1:0.337841 2:0.136787 3:0 4:0.941951 5:0.024691 
1 1:0.380198 2:0.049463 3:0 4:0.942435 5:0.024691 
1 1:0.270141 2:0.094872 3:0 4:0.941951 5:0.034568 
1 1:0.290547 2:0.166223 3:0 4:0.942435 5:0.034568 
1 1:0.383375 2:0.300356 3:0 4:0.942435 5:0.034568 
1 1:0.384317 2:-0.065806 3:0 4:0.942435 5:0.034568 
1 1:0.22777 2:0.084662 3:0 4:0.940887 5:0.034568 
1 1:0.23506 2:-0.219001 3:0 4:0.940887 5:0.034568 
1 1:0.403154 2:0.18851 3:0 4:0.938121 5:0.034568 
1 1:0.427225 2:0.021464 3:0 4:0.938121 5:0.034568 
1 1:0.134295 2:-0.079908 3:0 4:0.940887 5:0.064198 
1 1:0.26507 2:0.099143 3:0 4:0.936573 5:0.064198 
1 1:0.273483 2:0.049358 3:0 4:0.936573 5:0.064198 
1 1:0.285047 2:0.17163 3:0 4:0.938121 5:0.064198 
1 1:0.161143 2:0.116077 3:0 4:0.936573 5:0.064198 
1 1:0.49829 2:-0.153078 3:0 4:0.882018 5:0.019753 
1 1:0.459276 2:0.128344 3:0 4:0.882018 5:0.019753 
1 1:0.439952 2:0.176549 3:0 4:0.882018 5:0.024691 
1 1:0.414707 2:-0.007008 3:0 4:0.882018 5:0.024691 
1 1:0.473335 2:0.120724 3:0 4:0.876652 5:0.024691 
1 1:0.397254 2:-0.198201 3:0 4:0.876652 5:0.024691 
1 1:0.460841 2:-0.062035 3:0 4:0.882018 5:0.024691 
1 1:0.474008 2:-0.103444 3:0 4:0.882018 5:0.024691 
1 1:0.514764 2:-0.037849 3:0 4:0.882018 5:0.024691 
1 1:0.451977 2:-0.083802 3:0 4:0.876652 5:0.039506 
1 1:0.366671 2:0.057229 3:0 4:0.876652 5:0.039506 
1 1:0.374234 2:0.028572 3:0 4:0.882018 5:0.039506 
1 1:0.432554 2:0.135768 3:0 4:0.876652 5:0.039506 
1 1:0.456351 2:-0.038519 3:0 4:0.876652 5:0.039506 
1 1:0.216207 2:1 3:0.46932 4:0.630978 5:0.093827 
1 1:0.09229 2:0.620094 3:0.360903 4:0.722859 5:0.093827 
1 1:0.139765 2:0.80248 3:0.461875 4:0.737778 5:0.093827 
1 1:0.120664 2:0.453422 3:0.458581 4:0.743091 5:0.093827 
1 1:0.300976 2:-0.071063 3:0 4:0.968063 5:0.022222 
1 1:0.135512 2:-0.647956 3:0 4:0.860104 5:0.032099 
1 1:0.289203 2:-0.237302 3:0 4:0.864379 5:0.032099 
1 1:0.197911 2:-0.1925 3:0 4:0.877544 5:0.032099 
1 1:0.251204 2:-0.264667 3:0 4:0.877544 5:0.032099 
1 1:0.139505 2:-0.300425 3:0.138277 4:0.593195 5:0.061728 
1 1:0.082121 2:-0.413969 3:0.143051 4:0.588535 5:0.061728 
1 1:0.11274 2:-0.17953 3:0.38355 4:0.557312 5:0.061728 
1 1:0.225346 2:-0.5322 3:0 4:0.929776 5:0.02716 
1 1:0.304547 2:-0.104125 3:0 4:0.929776 5:0.02716 
1 1:0.230671 2:-0.072327 3:0 4:0.85208 5:0.037037 
1 1:0.231304 2:-0.42678 3:0 4:0.872939 5:0.037037 
1 1:0.316888 2:-0.01256 3:0 4:0.872939 5:0.037037 
1 1:0.221959 2:-0.295791 3:0 4:0.856212 5:0.037037 
1 1:0.231328 2:-0.158441 3:0 4:0.856212 5:0.037037 
1 1:0.529421 2:-0.192862 3:0 4:0.934346 5:0.02716 
1 1:0.457677 2:-0.175096 3:0 4:0.908358 5:0.037037 
1 1:0.518825 2:-0.039064 3:0 4:0.912633 5:0.037037 
1 1:0.502481 2:-0.075606 3:0 4:0.904965 5:0.037037 
1 1:0.515266 2:0.017354 3:0 4:0.920118 5:0.037037 
1 1:0.48242 2:-0.122396 3:0 4:0.920118 5:0.037037 
1 1:0.58026 2:0.016661 3:0 4:0.912313 5:0.037037 
1 1:0.452409 2:-0.010824 3:0 4:0.848442 5:0.066667 
1 1:0.447906 2:0.146109 3:0 4:0.861246 5:0.066667 
1 1:0.448999 2:0.132371 3:0 4:0.852669 5:0.066667 
1 1:0.453855 2:0.002064 3:0 4:0.84729 5:0.066667 
1 1:0.185206 2:-0.176615 3:0 4:0.930384 5:0.02716 
1 1:0.366097 2:0.101818 3:0 4:0.930384 5:0.02716 
1 1:0.21056 2:-0.173848 3:0 4:0.930384 5:0.037037 
1 1:0.304776 2:0.212006 3:0 4:0.930384 5:0.037037 
1 1:0.303183 2:-0.00864 3:0 4:0.930384 5:0.037037 
1 1:0.382962 2:-0.000935 3:0 4:0.930384 5:0.037037 
1 1:0.369288 2:0.273803 3:0 4:0.928836 5:0.037037 
1 1:0.211551 2:-0.035056 3:0 4:0.928836 5:0.037037 
1 1:0.399349 2:0.073983 3:0 4:0.92607 5:0.037037 
1 1:0.404251 2:0.049311 3:0 4:0.92607 5:0.037037 
1 1:0.176233 2:0.103448 3:0 4:0.928836 5:0.066667 
1 1:0.266966 2:0.095723 3:0 4:0.924522 5:0.066667 
1 1:0.270155 2:0.066768 3:0 4:0.92607 5:0.066667 
1 1:0.189018 2:0.114177 3:0 4:0.924522 5:0.066667 
1 1:0.49387 2:-0.141713 3:0 4:0.870383 5:0.022222 
1 1:0.441657 2:-0.282471 3:0 4:0.870383 5:0.022222 
1 1:0.444076 2:0.07695 3:0 4:0.870383 5:0.02716 
1 1:0.468133 2:-0.106706 3:0 4:0.870383 5:0.02716 
1 1:0.491936 2:0.018506 3:0 4:0.870383 5:0.02716 
1 1:0.460117 2:-0.191306 3:0 4:0.870383 5:0.02716 
1 1:0.493209 2:-0.035021 3:0 4:0.870383 5:0.02716 
1 1:0.538165 2:-0.042955 3:0 4:0.870383 5:0.02716 
1 1:0.430111 2:-0.148437 3:0 4:0.870383 5:0.041975 
1 1:0.395195 2:-0.072142 3:0 4:0.870383 5:0.041975 
1 1:0.380368 2:-0.160086 3:0 4:0.870383 5:0.041975 
1 1:0.416676 2:-0.016063 3:0 4:0.870383 5:0.041975 
1 1:0.436554 2:-0.179197 3:0 4:0.870383 5:0.041975 
1 1:0.23627 2:0.738979 3:0.337327 4:0.667013 5:0.096296 
1 1:0.115882 2:0.1198 3:0.07289 4:0.782609 5:0.096296 
1 1:0.117111 2:0.204316 3:0.243757 4:0.782768 5:0.096296 
1 1:0.165323 2:0.674335 3:0.243109 4:0.782553 5:0.096296 
1 1:0.430571 2:0.056312 3:0 4:0.97117 5:0.022222 
1 1:0.482671 2:0.400815 3:0 4:0.97117 5:0.022222 
1 1:0.359093 2:0.343333 3:0 4:0.967815 5:0.032099 
1 1:0.451696 2:0.543189 3:0 4:0.967815 5:0.032099 
1 1:0.41499 2:-0.061459 3:0 4:0.958768 5:0.032099 
1 1:0.480973 2:0.277174 3:0 4:0.958768 5:0.032099 
1 1:0.385815 2:0.46391 3:0 4:0.962799 5:0.032099 
1 1:0.529704 2:0.418133 3:0 4:0.962799 5:0.032099 
1 1:0.509365 2:0.279798 3:0 4:0.917474 5:0.032099 
1 1:0.485134 2:0.301298 3:0 4:0.917474 5:0.032099 
1 1:0.425851 2:0.478804 3:0 4:0.915753 5:0.061728 
1 1:0.35453 2:0.490757 3:0 4:0.896701 5:0.061728 
1 1:0.359381 2:0.666303 3:0.026671 4:0.903572 5:0.061728 
1 1:0.364176 2:0.694145 3:0 4:0.901717 5:0.061728 
1 1:0.38011 2:0.576697 3:0 4:0.924636 5:0.061728 
1 1:0.453895 2:0.158535 3:0 4:0.943167 5:0.02716 
1 1:0.436724 2:0.306652 3:0 4:0.941756 5:0.02716 
1 1:0.394504 2:0.292952 3:0 4:0.939812 5:0.037037 
1 1:0.352586 2:0.530637 3:0 4:0.940296 5:0.037037 
1 1:0.428466 2:0.284901 3:0 4:0.931981 5:0.037037 
1 1:0.376703 2:0.125947 3:0 4:0.930086 5:0.037037 
1 1:0.312534 2:0.405137 3:0 4:0.943651 5:0.037037 
1 1:0.455304 2:0.306579 3:0 4:0.901081 5:0.037037 
1 1:0.420429 2:0.062511 3:0 4:0.901081 5:0.037037 
1 1:0.374025 2:0.80981 3:0 4:0.897726 5:0.066667 
1 1:0.333712 2:0.497228 3:0 4:0.886056 5:0.066667 
1 1:0.258292 2:0.479698 3:0 4:0.917345 5:0.066667 
1 1:0.37162 2:0.075928 3:0 4:0.965224 5:0.02716 
1 1:0.493551 2:0.359907 3:0 4:0.965224 5:0.02716 
1 1:0.26139 2:0.079264 3:0 4:0.965224 5:0.037037 
1 1:0.36888 2:0.351084 3:0 4:0.965224 5:0.037037 
1 1:0.330017 2:-0.039027 3:0 4:0.959126 5:0.037037 
1 1:0.318861 2:0.1622 3:0 4:0.959126 5:0.037037 
1 1:0.264308 2:0.014352 3:0 4:0.956853 5:0.037037 
1 1:0.444296 2:0.549061 3:0 4:0.956853 5:0.037037 
1 1:0.537446 2:0.203022 3:0 4:0.954098 5:0.037037 
1 1:0.452305 2:0.236929 3:0 4:0.954098 5:0.037037 
1 1:0.335003 2:0.677764 3:0 4:0.950755 5:0.066667 
1 1:0.24124 2:0.174068 3:0 4:0.939629 5:0.066667 
1 1:0.229983 2:0.129481 3:0 4:0.945727 5:0.066667 
1 1:0.350474 2:0.359277 3:0 4:0.948 5:0.066667 
1 1:0.342515 2:0.6489 3:0 4:0.939629 5:0.066667 
1 1:0.41707 2:0.131131 3:0 4:0.95003 5:0.02716 
1 1:0.419122 2:0.082121 3:0 4:0.948619 5:0.02716 
1 1:0.403219 2:0.32302 3:0 4:0.95003 5:0.037037 
1 1:0.353339 2:0.380671 3:0 4:0.950514 5:0.037037 
1 1:0.339893 2:-0.021931 3:0 4:0.950514 5:0.037037 
1 1:0.281861 2:0.086351 3:0 4:0.948619 5:0.037037 
1 1:0.277625 2:0.129658 3:0 4:0.950514 5:0.037037 
1 1:0.279394 2:0.1479 3:0 4:0.950514 5:0.037037 
1 1:0.411527 2:0.187799 3:0 4:0.950514 5:0.037037 
1 1:0.315736 2:-0.162439 3:0 4:0.950514 5:0.037037 
1 1:0.175465 2:0.19865 3:0 4:0.950514 5:0.066667 
1 1:0.248309 2:0.134994 3:0 4:0.948619 5:0.066667 
1 1:0.278692 2:0.156608 3:0 4:0.950514 5:0.066667 
1 1:0.266717 2:0.077819 3:0 4:0.950514 5:0.066667 
1 1:0.17751 2:0.217751 3:0 4:0.950514 5:0.066667 
1 1:0.555715 2:-0.073348 3:0 4:0.940157 5:0.022222 
1 1:0.457707 2:-0.045595 3:0 4:0.940157 5:0.02716 
1 1:0.502189 2:0.10257 3:0 4:0.940157 5:0.02716 
1 1:0.431072 2:-0.296275 3:0 4:0.934791 5:0.02716 
1 1:0.486897 2:-0.202755 3:0 4:0.940157 5:0.02716 
1 1:0.5253 2:0.032833 3:0 4:0.940157 5:0.02716 
1 1:0.496551 2:-0.047663 3:0 4:0.934791 5:0.041975 
1 1:0.379564 2:-0.164888 3:0 4:0.934791 5:0.041975 
1 1:0.429304 2:0.012018 3:0 4:0.940157 5:0.041975 
1 1:0.461737 2:-0.135323 3:0 4:0.934791 5:0.041975 
1 1:0.484465 2:-0.123328 3:0 4:0.934791 5:0.041975 
1 1:0.232456 2:0.716244 3:0 4:0.893326 5:0.096296 
1 1:0.12948 2:0.340651 3:0 4:0.889603 5:0.096296 
1 1:0.152151 2:0.237665 3:0 4:0.901326 5:0.096296 
1 1:0.191647 2:0.201324 3:0 4:0.905868 5:0.096296 
1 1:0.20822 2:-0.240573 3:0 4:0.971749 5:0.022222 
1 1:0.357799 2:-0.21481 3:0 4:0.971749 5:0.022222 
1 1:0.346598 2:-0.078341 3:0 4:0.965272 5:0.032099 
1 1:0.213302 2:-0.123957 3:0 4:0.965272 5:0.032099 
1 1:0.167748 2:-0.385994 3:0 4:0.968482 5:0.032099 
1 1:0.146984 2:-0.596384 3:0 4:0.969574 5:0.032099 
1 1:0.246694 2:-0.012089 3:0 4:0.971749 5:0.032099 
1 1:0.231594 2:-0.306213 3:0 4:0.971749 5:0.032099 
1 1:0.236532 2:-0.36156 3:0 4:0.969068 5:0.032099 
1 1:0.362582 2:-0.467002 3:0 4:0.97016 5:0.032099 
1 1:0.166927 2:-0.363871 3:0 4:0.963096 5:0.061728 
1 1:0.151789 2:-0.291165 3:0 4:0.967984 5:0.061728 
1 1:0.167569 2:-0.153358 3:0 4:0.963683 5:0.061728 
1 1:0.084124 2:-0.389222 3:0 4:0.960415 5:0.061728 
1 1:0.160871 2:-0.397843 3:0 4:0.961507 5:0.061728 
1 1:0.265594 2:-0.044019 3:0 4:0.971749 5:0.02716 
1 1:0.271137 2:-0.044807 3:0 4:0.971749 5:0.02716 
1 1:0.213697 2:0.248912 3:0 4:0.971749 5:0.037037 
1 1:0.254912 2:0.143013 3:0 4:0.971749 5:0.037037 
1 1:0.137778 2:-0.283609 3:0 4:0.969574 5:0.037037 
1 1:0.235835 2:-0.256925 3:0 4:0.969574 5:0.037037 
1 1:0.222165 2:-0.06588 3:0 4:0.971749 5:0.037037 
1 1:0.241016 2:0.069019 3:0 4:0.971749 5:0.037037 
1 1:0.203404 2:-0.329491 3:0 4:0.971749 5:0.037037 
1 1:0.387583 2:-0.413821 3:0 4:0.971749 5:0.037037 
1 1:0.177164 2:-0.140854 3:0 4:0.969574 5:0.066667 
1 1:0.148132 2:-0.123688 3:0 4:0.969574 5:0.066667 
1 1:0.152035 2:0.158299 3:0 4:0.971749 5:0.066667 
1 1:0.091192 2:-0.305269 3:0 4:0.969574 5:0.066667 
1 1:0.174443 2:-0.07634 3:0 4:0.969574 5:0.066667 
1 1:0.394461 2:-0.281184 3:0 4:0.971749 5:0.02716 
1 1:0.377254 2:-0.351751 3:0 4:0.971749 5:0.02716 
1 1:0.424662 2:0.015652 3:0.023231 4:0.963377 5:0.037037 
1 1:0.270202 2:-0.076024 3:0 4:0.965272 5:0.037037 
1 1:0.397738 2:-0.249448 3:0 4:0.970657 5:0.037037 
1 1:0.379036 2:-0.061144 3:0 4:0.971749 5:0.037037 
1 1:0.548577 2:0.103515 3:0 4:0.971749 5:0.037037 
1 1:0.27183 2:-0.032629 3:0 4:0.971749 5:0.037037 
1 1:0.443123 2:-0.333619 3:0 4:0.969068 5:0.037037 
1 1:0.386393 2:-0.044288 3:0 4:0.97016 5:0.037037 
1 1:0.097288 2:-0.152096 3:0 4:0.965272 5:0.066667 
1 1:0.283231 2:-0.242085 3:0 4:0.97016 5:0.066667 
1 1:0.152695 2:-0.048381 3:0 4:0.963683 5:0.066667 
1 1:0.288754 2:-0.021119 3:0 4:0.962591 5:0.066667 
1 1:0.082924 2:-0.352869 3:0 4:0.963683 5:0.066667 
1 1:0.214622 2:0.122298 3:0 4:0.971749 5:0.02716 
1 1:0.176742 2:-0.290529 3:0 4:0.971749 5:0.02716 
1 1:0.218723 2:0.562991 3:0 4:0.971749 5:0.037037 
1 1:0.282705 2:0.206559 3:0 4:0.971749 5:0.037037 
1 1:0.248095 2:-0.036899 3:0 4:0.971749 5:0.037037 
1 1:0.182279 2:0.163423 3:0 4:0.971749 5:0.037037 
1 1:0.29508 2:0.169654 3:0 4:0.971749 5:0.037037 
1 1:0.212321 2:0.168747 3:0 4:0.971749 5:0.037037 
1 1:0.455091 2:0.087464 3:0 4:0.971749 5:0.037037 
1 1:0.348616 2:0.046789 3:0 4:0.971749 5:0.037037 
1 1:0.166349 2:0.343639 3:0 4:0.971749 5:0.066667 
1 1:0.163587 2:0.244745 3:0 4:0.971749 5:0.066667 
1 1:0.257238 2:0.354002 3:0 4:0.971749 5:0.066667 
1 1:0.113184 2:0.253384 3:0 4:0.971749 5:0.066667 
1 1:0.169311 2:0.200605 3:0 4:0.971749 5:0.066667 
1 1:0.549817 2:-0.161642 3:0 4:0.962591 5:0.022222 
1 1:0.538579 2:-0.024313 3:0 4:0.962591 5:0.022222 
1 1:0.51172 2:-0.178904 3:0 4:0.962591 5:0.02716 
1 1:0.561607 2:0.003938 3:0 4:0.962591 5:0.02716 
1 1:0.580459 2:0.035812 3:0 4:0.962591 5:0.02716 
1 1:0.54241 2:0.048577 3:0 4:0.962591 5:0.02716 
1 1:0.583617 2:-0.132542 3:0 4:0.962591 5:0.02716 
1 1:0.531061 2:-0.054383 3:0 4:0.962591 5:0.02716 
1 1:0.629329 2:-0.003309 3:0 4:0.962591 5:0.02716 
1 1:0.513742 2:-0.184183 3:0 4:0.962591 5:0.041975 
1 1:0.46996 2:-0.036383 3:0 4:0.962591 5:0.041975 
1 1:0.504807 2:-0.007989 3:0 4:0.962591 5:0.041975 
1 1:0.494715 2:-0.222313 3:0 4:0.962591 5:0.041975 
1 1:0.080715 2:0.023442 3:0 4:0.953432 5:0.096296 
1 1:0.075037 2:0.062581 3:0 4:0.962591 5:0.096296 
1 1:0.307134 2:0.210154 3:0.009444 4:0.96182 5:0.096296 
1 1:0.084973 2:0.221686 3:0 4:0.962591 5:0.096296 
1 1:0.660013 2:0.091305 3:0 4:0.932389 5:0.014815 
1 1:0.635078 2:0.081169 3:0 4:0.932389 5:0.014815 
1 1:0.601949 2:0.385946 3:0 4:0.932389 5:0.019753 
1 1:0.639851 2:-0.011392 3:0 4:0.932389 5:0.019753 
1 1:0.667464 2:0.594036 3:0 4:0.932389 5:0.019753 
1 1:0.593808 2:0.335931 3:0 4:0.932389 5:0.034568 
1 1:0.554671 2:0.258362 3:0 4:0.932389 5:0.034568 
1 1:0.747905 2:0.637382 3:0 4:0.932389 5:0.034568 
1 1:0.78707 2:0.382707 3:0 4:0.932389 5:0.034568 
1 1:0.587146 2:0.413592 3:0 4:0.932389 5:0.034568 
1 1:0.652102 2:0.385308 3:0 4:0.932389 5:0.017284 
1 1:0.666367 2:0.265956 3:0 4:0.930494 5:0.017284 
1 1:0.67022 2:0.539824 3:0 4:0.932389 5:0.022222 
1 1:0.621555 2:0.376371 3:0 4:0.932389 5:0.022222 
1 1:0.750584 2:0.153829 3:0 4:0.932389 5:0.022222 
1 1:0.590804 2:0.155875 3:0 4:0.930494 5:0.022222 
1 1:0.713955 2:0.269834 3:0 4:0.932389 5:0.022222 
1 1:0.649569 2:0.462711 3:0 4:0.932389 5:0.022222 
1 1:0.837264 2:0.345927 3:0 4:0.932389 5:0.022222 
1 1:0.64263 2:0.253903 3:0 4:0.932389 5:0.022222 
1 1:0.601222 2:0.465844 3:0 4:0.932389 5:0.037037 
1 1:0.546031 2:0.361954 3:0 4:0.930494 5:0.037037 
1 1:0.637226 2:0.638927 3:0 4:0.932389 5:0.037037 
1 1:0.514315 2:0.328525 3:0 4:0.932389 5:0.037037 
1 1:0.596424 2:0.368998 3:0 4:0.932389 5:0.037037 
1 1:0.642205 2:0.036464 3:0 4:0.932389 5:0.022222 
1 1:0.648545 2:0.244575 3:0 4:0.932389 5:0.022222 
1 1:0.492826 2:0.26963 3:0 4:0.932389 5:0.037037 
1 1:0.633359 2:0.116789 3:0 4:0.932389 5:0.037037 
1 1:0.493644 2:0.248736 3:0 4:0.932389 5:0.037037 
1 1:0.596972 2:0.0435 3:0 4:0.931618 5:0.017284 
1 1:0.660373 2:0.313796 3:0 4:0.929723 5:0.017284 
1 1:0.573837 2:0.073322 3:0 4:0.931618 5:0.022222 
1 1:0.558103 2:0.191037 3:0 4:0.931618 5:0.022222 
1 1:0.532664 2:-0.033047 3:0 4:0.931618 5:0.022222 
1 1:0.50863 2:0.168984 3:0 4:0.929723 5:0.022222 
1 1:0.554697 2:-0.002309 3:0 4:0.931618 5:0.022222 
1 1:0.457681 2:0.088732 3:0 4:0.931618 5:0.022222 
1 1:0.572545 2:0.047236 3:0 4:0.931618 5:0.022222 
1 1:0.530149 2:0.031391 3:0 4:0.931618 5:0.022222 
1 1:0.484353 2:0.270881 3:0 4:0.931618 5:0.037037 
1 1:0.435327 2:0.225118 3:0 4:0.929723 5:0.037037 
1 1:0.480467 2:0.196597 3:0 4:0.931618 5:0.037037 
1 1:0.433412 2:0.143167 3:0 4:0.931618 5:0.037037 
1 1:0.467085 2:0.281614 3:0 4:0.931618 5:0.037037 
1 1:0.39635 2:0.24096 3:0 4:0.931618 5:0.051852 
1 1:0.398786 2:0.333489 3:0 4:0.930066 5:0.051852 
1 1:0.399793 2:0.256515 3:0 4:0.92817 5:0.051852 
1 1:0.398142 2:0.081803 3:0 4:0.930836 5:0.051852 
1 1:0.341028 2:0.155155 3:0 4:0.930066 5:0.051852 
1 1:0.05482 2:0.413527 3:0.391478 4:0.676887 5:0.207407 
1 1:0.239631 2:0.612903 3:0.353398 4:0.822878 5:0.207407 
1 1:0.066194 2:0.47751 3:0.346295 4:0.839153 5:0.207407 
1 1:0.005691 2:0.225813 3:0.403182 4:0.843371 5:0.207407 
1 1:0.500412 2:0.060211 3:0 4:0.995725 5:0.019753 
1 1:0.334078 2:0.113913 3:0 4:1 5:0.019753 
1 1:0.377145 2:0.049578 3:0 4:0.895163 5:0.02963 
1 1:0.191735 2:-0.149759 3:0 4:0.899438 5:0.02963 
1 1:0.50635 2:0.158468 3:0 4:0.899281 5:0.02963 
1 1:0.360959 2:0.171251 3:0 4:0.899281 5:0.02963 
1 1:0.635846 2:0.408842 3:0 4:0.901109 5:0.02963 
1 1:0.3958 2:0.118683 3:0 4:0.901109 5:0.02963 
1 1:0.328833 2:0.146088 3:0 4:0.774239 5:0.02963 
1 1:0.342731 2:0.135694 3:0 4:0.774239 5:0.02963 
1 1:0.353054 2:0.84815 3:1 4:0.508069 5:0.059259 
1 1:0.325592 2:1 3:0.952399 4:0.496933 5:0.059259 
1 1:0.083079 2:0.113129 3:0.670038 4:0.520125 5:0.059259 
1 1:0.153889 2:0.646356 3:0.882777 4:0.500942 5:0.059259 
1 1:0.179854 2:0.422927 3:0.819548 4:0.517389 5:0.059259 
1 1:0.656713 2:0.159914 3:0 4:0.93371 5:0.024691 
1 1:0.193028 2:0.093641 3:0 4:0.852659 5:0.034568 
1 1:0.324274 2:0.281863 3:0 4:0.853143 5:0.034568 
1 1:0.374851 2:0.335339 3:0 4:0.867863 5:0.034568 
1 1:0.316492 2:-0.014481 3:0 4:0.867863 5:0.034568 
1 1:0.381095 2:0.189859 3:0 4:0.860629 5:0.034568 
1 1:0.34289 2:0.29989 3:0 4:0.860629 5:0.034568 
1 1:0.355054 2:-0.117908 3:0 4:0.738872 5:0.034568 
1 1:0.493851 2:0.053494 3:0 4:0.960336 5:0.024691 
1 1:0.524737 2:0.317148 3:0 4:0.940826 5:0.034568 
1 1:0.216392 2:-0.026824 3:0 4:0.945101 5:0.034568 
1 1:0.577788 2:-0.01607 3:0 4:0.924858 5:0.034568 
1 1:0.607454 2:0.523177 3:0 4:0.924858 5:0.034568 
1 1:0.582062 2:0.364737 3:0 4:0.937737 5:0.034568 
1 1:0.488117 2:-0.041191 3:0 4:0.937737 5:0.034568 
1 1:0.482522 2:0.186979 3:0 4:0.929859 5:0.034568 
1 1:0.402821 2:0.142218 3:0 4:0.929859 5:0.034568 
1 1:0.549102 2:0.623886 3:0.052874 4:0.862128 5:0.064198 
1 1:0.229832 2:0.223683 3:0 4:0.863231 5:0.064198 
1 1:0.228303 2:0.413063 3:0 4:0.883474 5:0.064198 
1 1:0.306545 2:0.429826 3:0.018977 4:0.869047 5:0.064198 
1 1:0.32193 2:0.494417 3:0 4:0.855752 5:0.064198 
1 1:0.334927 2:0.043904 3:0 4:0.941951 5:0.024691 
1 1:0.403622 2:0.256579 3:0 4:0.942435 5:0.024691 
1 1:0.304407 2:-0.113282 3:0 4:0.941951 5:0.034568 
1 1:0.350572 2:0.284946 3:0 4:0.942435 5:0.034568 
1 1:0.394195 2:0.503917 3:0 4:0.942435 5:0.034568 
1 1:0.360899 2:0.200299 3:0 4:0.942435 5:0.034568 
1 1:0.432662 2:0.144785 3:0 4:0.940887 5:0.034568 
1 1:0.315005 2:0.337897 3:0 4:0.940887 5:0.034568 
1 1:0.481324 2:0.431724 3:0 4:0.938121 5:0.034568 
1 1:0.462117 2:0.101508 3:0 4:0.938121 5:0.034568 
1 1:0.311971 2:0.485022 3:0 4:0.940887 5:0.064198 
1 1:0.279288 2:0.361922 3:0 4:0.936573 5:0.064198 
1 1:0.319746 2:0.298652 3:0 4:0.936573 5:0.064198 
1 1:0.38242 2:0.45266 3:0 4:0.938121 5:0.064198 
1 1:0.320303 2:0.517361 3:0 4:0.936573 5:0.064198 
1 1:0.629957 2:0.105146 3:0 4:0.876652 5:0.039506 
1 1:0.644098 2:0.112061 3:0 4:0.882018 5:0.039506 
1 1:0.645915 2:0.179966 3:0 4:0.876652 5:0.039506 
1 1:0.120998 2:0.619295 3:0.46932 4:0.630978 5:0.093827 
1 1:0.078868 2:0.435001 3:0.360903 4:0.722859 5:0.093827 
1 1:0.454636 2:0.885729 3:0.461875 4:0.737778 5:0.093827 
1 1:0.105975 2:0.711186 3:0.458581 4:0.743091 5:0.093827 
1 1:0.214049 2:-0.306622 3:0 4:0.963789 5:0.022222 
1 1:0.367931 2:-0.250274 3:0 4:0.968063 5:0.022222 
1 1:0.133262 2:-0.377338 3:0 4:0.860104 5:0.032099 
1 1:0.195076 2:-0.60356 3:0 4:0.864379 5:0.032099 
1 1:0.274779 2:-0.487213 3:0 4:0.876478 5:0.032099 
1 1:0.273125 2:-0.481712 3:0 4:0.87757 5:0.032099 
1 1:0.253898 2:-0.067937 3:0 4:0.877544 5:0.032099 
1 1:0.276252 2:-0.219573 3:0 4:0.877544 5:0.032099 
1 1:0.131754 2:-0.130087 3:0.138277 4:0.593195 5:0.061728 
1 1:0.069991 2:-0.420406 3:0.143051 4:0.588535 5:0.061728 
1 1:0.148818 2:-0.156811 3:0.38355 4:0.557312 5:0.061728 
1 1:0.231001 2:-0.509908 3:0 4:0.929776 5:0.02716 
1 1:0.330367 2:-0.357992 3:0 4:0.929776 5:0.02716 
1 1:0.150254 2:-0.317853 3:0 4:0.85208 5:0.037037 
1 1:0.230926 2:-0.432936 3:0 4:0.85208 5:0.037037 
1 1:0.240273 2:-0.127414 3:0 4:0.872939 5:0.037037 
1 1:0.270105 2:-0.171673 3:0 4:0.856212 5:0.037037 
1 1:0.216829 2:-0.233455 3:0 4:0.856212 5:0.037037 
1 1:0.26742 2:-0.262333 3:0 4:0.777025 5:0.037037 
1 1:0.499887 2:-0.083577 3:0 4:0.934346 5:0.02716 
1 1:0.233347 2:-0.057858 3:0 4:0.908358 5:0.037037 
1 1:0.248071 2:-0.177246 3:0 4:0.912633 5:0.037037 
1 1:0.473214 2:-0.092516 3:0 4:0.903873 5:0.037037 
1 1:0.497068 2:0.126634 3:0 4:0.904965 5:0.037037 
1 1:0.260483 2:0.259356 3:0 4:0.920118 5:0.037037 
1 1:0.488655 2:-0.022747 3:0 4:0.920118 5:0.037037 
1 1:0.312778 2:-0.252059 3:0 4:0.912313 5:0.037037 
1 1:0.365059 2:-0.17703 3:0 4:0.913405 5:0.037037 
1 1:0.197809 2:0.099332 3:0 4:0.848442 5:0.066667 
1 1:0.152494 2:-0.168746 3:0 4:0.861246 5:0.066667 
1 1:0.175164 2:-0.0344 3:0 4:0.868914 5:0.066667 
1 1:0.200937 2:-0.083677 3:0 4:0.852669 5:0.066667 
1 1:0.195809 2:0.142047 3:0 4:0.84729 5:0.066667 
1 1:0.353282 2:0.281482 3:0 4:0.930384 5:0.02716 
1 1:0.326249 2:-0.004399 3:0 4:0.930384 5:0.02716 
1 1:0.234603 2:0.113742 3:0 4:0.930384 5:0.037037 
1 1:0.223984 2:-0.027973 3:0 4:0.930384 5:0.037037 
1 1:0.320542 2:0.159211 3:0 4:0.930384 5:0.037037 
1 1:0.323541 2:0.137801 3:0 4:0.930384 5:0.037037 
1 1:0.237109 2:0.245167 3:0 4:0.928836 5:0.037037 
1 1:0.209377 2:0.210854 3:0 4:0.928836 5:0.037037 
1 1:0.349702 2:-0.03222 3:0 4:0.92607 5:0.037037 
1 1:0.360231 2:3.9e-05 3:0 4:0.92607 5:0.037037 
1 1:0.192256 2:0.191705 3:0 4:0.928836 5:0.066667 
1 1:0.234885 2:-0.048315 3:0 4:0.924522 5:0.066667 
1 1:0.264622 2:0.15575 3:0 4:0.92607 5:0.066667 
1 1:0.200489 2:0.360775 3:0 4:0.924522 5:0.066667 
1 1:0.121236 2:0.416399 3:0.337327 4:0.667013 5:0.096296 
1 1:0.115279 2:0.001441 3:0.07289 4:0.782609 5:0.096296 
1 1:0.409486 2:0.522963 3:0.243757 4:0.782768 5:0.096296 
1 1:0.182475 2:0.714768 3:0.243109 4:0.782553 5:0.096296 
1 1:0.562522 2:0.45689 3:0 4:0.97117 5:0.022222 
1 1:0.637044 2:0.3544 3:0 4:0.97117 5:0.022222 
1 1:0.680693 2:0.5098 3:0 4:0.967815 5:0.032099 
1 1:0.607325 2:0.319089 3:0 4:0.967815 5:0.032099 
1 1:0.596189 2:0.352135 3:0 4:0.958768 5:0.032099 
1 1:0.593768 2:0.324572 3:0 4:0.958768 5:0.032099 
1 1:0.594751 2:0.586479 3:0 4:0.962799 5:0.032099 
1 1:0.711608 2:0.344116 3:0 4:0.962799 5:0.032099 
1 1:0.477546 2:0.152064 3:0 4:0.917474 5:0.032099 
1 1:0.485916 2:0.206667 3:0 4:0.917474 5:0.032099 
1 1:0.532102 2:0.595628 3:0 4:0.915753 5:0.061728 
1 1:0.25345 2:0.461358 3:0 4:0.896701 5:0.061728 
1 1:0.267079 2:0.288279 3:0.026671 4:0.903572 5:0.061728 
1 1:0.282923 2:0.428568 3:0 4:0.901717 5:0.061728 
1 1:0.298299 2:0.461621 3:0 4:0.924636 5:0.061728 
1 1:0.577798 2:0.267203 3:0 4:0.943167 5:0.02716 
1 1:0.388476 2:0.099808 3:0 4:0.941756 5:0.02716 
1 1:0.455892 2:0.568416 3:0 4:0.939812 5:0.037037 
1 1:0.34137 2:0.283292 3:0 4:0.940296 5:0.037037 
1 1:0.315486 2:0.409514 3:0 4:0.931981 5:0.037037 
1 1:0.710015 2:0.288351 3:0 4:0.930086 5:0.037037 
1 1:0.267019 2:0.435521 3:0 4:0.943651 5:0.037037 
1 1:0.370668 2:0.102694 3:0 4:0.901081 5:0.037037 
1 1:0.305689 2:0.621588 3:0 4:0.897726 5:0.066667 
1 1:0.222419 2:0.303584 3:0 4:0.886056 5:0.066667 
1 1:0.520142 2:0.568359 3:0 4:0.917345 5:0.066667 
1 1:0.646689 2:0.187842 3:0 4:0.965224 5:0.02716 
1 1:0.585836 2:0.264465 3:0 4:0.965224 5:0.02716 
1 1:0.694427 2:0.277618 3:0 4:0.965224 5:0.037037 
1 1:0.530409 2:0.120182 3:0 4:0.965224 5:0.037037 
1 1:0.589325 2:0.130769 3:0 4:0.959126 5:0.037037 
1 1:0.600745 2:0.191043 3:0 4:0.959126 5:0.037037 
1 1:0.624428 2:0.406034 3:0 4:0.956853 5:0.037037 
1 1:0.65595 2:0.091208 3:0 4:0.954098 5:0.037037 
1 1:0.611934 2:0.170605 3:0 4:0.954098 5:0.037037 
1 1:0.516729 2:0.396396 3:0 4:0.950755 5:0.066667 
1 1:0.214224 2:0.207067 3:0 4:0.939629 5:0.066667 
1 1:0.406689 2:0.368794 3:0 4:0.945727 5:0.066667 
1 1:0.314913 2:0.229004 3:0 4:0.948 5:0.066667 
1 1:0.296627 2:0.343687 3:0 4:0.939629 5:0.066667 
1 1:0.256547 2:-0.130761 3:0 4:0.95003 5:0.02716 
1 1:0.265752 2:0.081917 3:0 4:0.948619 5:0.02716 
1 1:0.36249 2:-0.009486 3:0 4:0.95003 5:0.037037 
1 1:0.202868 2:0.106266 3:0 4:0.950514 5:0.037037 
1 1:0.285877 2:0.237017 3:0 4:0.950514 5:0.037037 
1 1:0.458067 2:0.084556 3:0 4:0.948619 5:0.037037 
1 1:0.281114 2:-0.16118 3:0 4:0.950514 5:0.037037 
1 1:0.299305 2:0.195121 3:0 4:0.950514 5:0.037037 
1 1:0.329455 2:0.319958 3:0 4:0.950514 5:0.037037 
1 1:0.380213 2:-0.120477 3:0 4:0.950514 5:0.037037 
1 1:0.242634 2:0.290737 3:0 4:0.950514 5:0.066667 
1 1:0.235495 2:0.052955 3:0 4:0.948619 5:0.066667 
1 1:0.219002 2:-0.167593 3:0 4:0.950514 5:0.066667 
1 1:0.225618 2:0.350647 3:0 4:0.950514 5:0.066667 
1 1:0.249561 2:0.260939 3:0 4:0.950514 5:0.066667 
1 1:0.772086 2:0.197617 3:0 4:0.940157 5:0.02716 
1 1:0.698473 2:0.129394 3:0 4:0.934791 5:0.041975 
1 1:0.722032 2:0.26729 3:0 4:0.940157 5:0.041975 
1 1:0.710603 2:0.207315 3:0 4:0.934791 5:0.041975 
1 1:0.139609 2:0.10404 3:0 4:0.893326 5:0.096296 
1 1:0.116336 2:0.159655 3:0 4:0.889603 5:0.096296 
1 1:0.516635 2:0.447701 3:0 4:0.901326 5:0.096296 
1 1:0.135346 2:0.267632 3:0 4:0.905868 5:0.096296 
1 1:0.368835 2:-0.096991 3:0 4:0.971749 5:0.022222 
1 1:0.242234 2:-0.384051 3:0 4:0.971749 5:0.022222 
1 1:0.238749 2:0.015125 3:0 4:0.965272 5:0.032099 
1 1:0.264745 2:-0.289061 3:0 4:0.965272 5:0.032099 
1 1:0.190232 2:-0.201511 3:0 4:0.968482 5:0.032099 
1 1:0.195614 2:-0.469302 3:0 4:0.969574 5:0.032099 
1 1:0.232037 2:0.177228 3:0 4:0.971749 5:0.032099 
1 1:0.218189 2:-0.159731 3:0 4:0.971749 5:0.032099 
1 1:0.23677 2:-0.520239 3:0 4:0.969068 5:0.032099 
1 1:0.207498 2:-0.155131 3:0 4:0.963096 5:0.061728 
1 1:0.131518 2:-0.366873 3:0 4:0.967984 5:0.061728 
1 1:0.114114 2:-0.206294 3:0 4:0.963683 5:0.061728 
1 1:0.082511 2:-0.54531 3:0 4:0.960415 5:0.061728 
1 1:0.200754 2:-0.110436 3:0 4:0.961507 5:0.061728 
1 1:0.342992 2:-0.169913 3:0 4:0.971749 5:0.02716 
1 1:0.286411 2:-0.059141 3:0 4:0.971749 5:0.02716 
1 1:0.359801 2:0.256135 3:0 4:0.971749 5:0.037037 
1 1:0.25358 2:-0.067908 3:0 4:0.971749 5:0.037037 
1 1:0.186843 2:-0.170889 3:0 4:0.969574 5:0.037037 
1 1:0.18706 2:-0.212787 3:0 4:0.969574 5:0.037037 
1 1:0.209315 2:-0.037594 3:0 4:0.971749 5:0.037037 
1 1:0.139072 2:0.129188 3:0 4:0.971749 5:0.037037 
1 1:0.239336 2:-0.081948 3:0 4:0.971749 5:0.037037 
1 1:0.392577 2:-0.010695 3:0 4:0.971749 5:0.037037 
1 1:0.099485 2:-0.111793 3:0 4:0.969574 5:0.066667 
1 1:0.129686 2:-0.046027 3:0 4:0.969574 5:0.066667 
1 1:0.237916 2:-0.092654 3:0 4:0.971749 5:0.066667 
1 1:0.097572 2:-0.166851 3:0 4:0.969574 5:0.066667 
1 1:0.096562 2:-0.131505 3:0 4:0.969574 5:0.066667 
1 1:0.338683 2:0.099768 3:0 4:0.971749 5:0.02716 
1 1:0.231499 2:-0.254063 3:0 4:0.971749 5:0.02716 
1 1:0.153422 2:-0.063239 3:0.023231 4:0.963377 5:0.037037 
1 1:0.284311 2:-0.146204 3:0 4:0.965272 5:0.037037 
1 1:0.275634 2:0.098315 3:0 4:0.970657 5:0.037037 
1 1:0.198395 2:0.065553 3:0 4:0.971749 5:0.037037 
1 1:0.165025 2:0.06104 3:0 4:0.971749 5:0.037037 
1 1:0.322808 2:-0.154229 3:0 4:0.971749 5:0.037037 
1 1:0.327342 2:-0.220605 3:0 4:0.969068 5:0.037037 
1 1:0.422284 2:0.036932 3:0 4:0.97016 5:0.037037 
1 1:0.233664 2:0.03469 3:0 4:0.965272 5:0.066667 
1 1:0.125176 2:-0.024584 3:0 4:0.97016 5:0.066667 
1 1:0.132388 2:-0.014684 3:0 4:0.963683 5:0.066667 
1 1:0.247311 2:-0.014268 3:0 4:0.962591 5:0.066667 
1 1:0.24185 2:0.091843 3:0 4:0.963683 5:0.066667 
1 1:0.268863 2:0.086637 3:0 4:0.971749 5:0.02716 
1 1:0.227046 2:-0.027103 3:0 4:0.971749 5:0.02716 
1 1:0.252182 2:0.051445 3:0 4:0.971749 5:0.037037 
1 1:0.12818 2:-0.393441 3:0 4:0.971749 5:0.037037 
1 1:0.190297 2:0.071038 3:0 4:0.971749 5:0.037037 
1 1:0.277513 2:0.129837 3:0 4:0.971749 5:0.037037 
1 1:0.187208 2:-0.161704 3:0 4:0.971749 5:0.037037 
1 1:0.126788 2:-0.046373 3:0 4:0.971749 5:0.037037 
1 1:0.277185 2:-0.089818 3:0 4:0.971749 5:0.037037 
1 1:0.286005 2:0.002375 3:0 4:0.971749 5:0.037037 
1 1:0.118725 2:-0.057045 3:0 4:0.971749 5:0.066667 
1 1:0.14222 2:0.207726 3:0 4:0.971749 5:0.066667 
1 1:0.138457 2:0.101817 3:0 4:0.971749 5:0.066667 
1 1:0.152319 2:0.036777 3:0 4:0.971749 5:0.066667 
1 1:0.110638 2:-0.049758 3:0 4:0.971749 5:0.066667 
1 1:0.596812 2:-0.014455 3:0 4:0.962591 5:0.022222 
1 1:0.445302 2:-0.220514 3:0 4:0.962591 5:0.022222 
1 1:0.385503 2:0.114022 3:0 4:0.962591 5:0.02716 
1 1:0.478177 2:0.12695 3:0 4:0.962591 5:0.02716 
1 1:0.570133 2:-0.007506 3:0 4:0.962591 5:0.02716 
1 1:0.452421 2:0.075166 3:0 4:0.962591 5:0.02716 
1 1:0.374659 2:0.260008 3:0 4:0.962591 5:0.02716 
1 1:0.511856 2:-0.092045 3:0 4:0.962591 5:0.02716 
1 1:0.5779 2:-0.126592 3:0 4:0.962591 5:0.02716 
1 1:0.57684 2:-0.001597 3:0 4:0.962591 5:0.02716 
1 1:0.449794 2:0.181444 3:0 4:0.962591 5:0.041975 
1 1:0.428869 2:-0.015501 3:0 4:0.962591 5:0.041975 
1 1:0.336869 2:-0.088058 3:0 4:0.962591 5:0.041975 
1 1:0.413139 2:0.03826 3:0 4:0.962591 5:0.041975 
1 1:0.451856 2:0.106236 3:0 4:0.962591 5:0.041975 
1 1:0.068128 2:0.076161 3:0 4:0.953432 5:0.096296 
1 1:0.034948 2:0.153906 3:0 4:0.962591 5:0.096296 
1 1:0.132093 2:0.228859 3:0.009444 4:0.96182 5:0.096296 
1 1:0.158511 2:0.108693 3:0 4:0.962591 5:0.096296 
1 1:0.705687 2:0.174264 3:0 4:0.932389 5:0.014815 
1 1:0.690242 2:0.022945 3:0 4:0.932389 5:0.014815 
1 1:0.800375 2:0.345167 3:0 4:0.932389 5:0.019753 
1 1:0.689761 2:0.090874 3:0 4:0.932389 5:0.019753 
1 1:0.77908 2:0.228686 3:0 4:0.932389 5:0.019753 
1 1:0.701339 2:0.300619 3:0 4:0.932389 5:0.019753 
1 1:0.87553 2:0.4677 3:0 4:0.932389 5:0.019753 
1 1:0.596947 2:0.245966 3:0 4:0.932389 5:0.034568 
1 1:0.643491 2:0.408676 3:0 4:0.932389 5:0.034568 
1 1:0.691745 2:0.312213 3:0 4:0.932389 5:0.034568 
1 1:0.645538 2:0.016637 3:0 4:0.932389 5:0.034568 
1 1:0.600841 2:0.257771 3:0 4:0.932389 5:0.034568 
1 1:0.773898 2:0.16036 3:0 4:0.932389 5:0.017284 
1 1:0.62488 2:-0.067637 3:0 4:0.932389 5:0.022222 
1 1:0.784539 2:0.294961 3:0 4:0.932389 5:0.022222 
1 1:0.684776 2:0.173231 3:0 4:0.932389 5:0.022222 
1 1:0.774378 2:0.2801 3:0 4:0.932389 5:0.022222 
1 1:0.639986 2:0.225883 3:0 4:0.932389 5:0.037037 
1 1:0.652773 2:0.182734 3:0 4:0.930494 5:0.037037 
1 1:0.661293 2:0.24071 3:0 4:0.932389 5:0.037037 
1 1:0.647638 2:0.183612 3:0 4:0.932389 5:0.037037 
1 1:0.653858 2:0.320623 3:0 4:0.932389 5:0.037037 
1 1:0.764167 2:0.17738 3:0 4:0.932389 5:0.022222 
1 1:0.763441 2:0.173078 3:0 4:0.932389 5:0.022222 
1 1:0.727157 2:0.122677 3:0 4:0.932389 5:0.022222 
1 1:0.593421 2:0.072712 3:0 4:0.932389 5:0.037037 
1 1:0.59156 2:0.216563 3:0 4:0.932389 5:0.037037 
1 1:0.717701 2:0.151807 3:0 4:0.932389 5:0.037037 
1 1:0.675651 2:0.084044 3:0 4:0.932389 5:0.037037 
1 1:0.584204 2:0.125174 3:0 4:0.932389 5:0.037037 
1 1:0.660991 2:-0.029132 3:0 4:0.931618 5:0.017284 
1 1:0.690377 2:0.053935 3:0 4:0.931618 5:0.022222 
1 1:0.584302 2:-0.12522 3:0 4:0.931618 5:0.022222 
1 1:0.640069 2:0.008783 3:0 4:0.931618 5:0.022222 
1 1:0.685977 2:0.060657 3:0 4:0.931618 5:0.022222 
1 1:0.709884 2:0.134021 3:0 4:0.931618 5:0.022222 
1 1:0.553744 2:0.073941 3:0 4:0.931618 5:0.037037 
1 1:0.548298 2:0.053834 3:0 4:0.931618 5:0.037037 
1 1:0.560973 2:0.044305 3:0 4:0.931618 5:0.037037 
1 1:0.431512 2:0.017864 3:0 4:0.931618 5:0.051852 
1 1:0.463226 2:0.0371 3:0 4:0.930066 5:0.051852 
1 1:0.451679 2:-0.13791 3:0 4:0.92817 5:0.051852 
1 1:0.563739 2:0.092277 3:0 4:0.930836 5:0.051852 
1 1:0.433264 2:0.052186 3:0 4:0.930066 5:0.051852 
1 1:0.152063 2:0.596571 3:0.391478 4:0.676887 5:0.207407 
1 1:0.062706 2:0.381905 3:0.353398 4:0.822878 5:0.207407 
1 1:0.256783 2:0.372305 3:0.346295 4:0.839153 5:0.207407 
1 1:0.008826 2:0.046788 3:0.403182 4:0.843371 5:0.207407 
1 1:0.267249 2:0.193472 3:0 4:0.995725 5:0.019753 
1 1:0.331929 2:-0.102193 3:0 4:1 5:0.019753 
1 1:0.18507 2:0.121927 3:0 4:0.895163 5:0.02963 
1 1:0.236578 2:0.088471 3:0 4:0.899438 5:0.02963 
1 1:0.454334 2:0.124188 3:0 4:0.899281 5:0.02963 
1 1:0.409114 2:0.03136 3:0 4:0.899281 5:0.02963 
1 1:0.397914 2:0.417018 3:0 4:0.901109 5:0.02963 
1 1:0.219205 2:0.212008 3:0 4:0.901109 5:0.02963 
1 1:0.458467 2:0.08896 3:0 4:0.774239 5:0.02963 
1 1:0.17338 2:1 3:1 4:0.508069 5:0.059259 
1 1:0.328126 2:0.985197 3:0.952399 4:0.496933 5:0.059259 
1 1:0.188583 2:0.840311 3:0.670038 4:0.520125 5:0.059259 
1 1:0.125711 2:0.586802 3:0.882777 4:0.500942 5:0.059259 
1 1:0.124422 2:0.396412 3:0.819548 4:0.517389 5:0.059259 
1 1:0.545009 2:0.00721 3:0 4:0.93371 5:0.024691 
1 1:0.380314 2:0.335599 3:0 4:0.852659 5:0.034568 
1 1:0.399521 2:0.17505 3:0 4:0.853143 5:0.034568 
1 1:0.55455 2:0.157607 3:0 4:0.867863 5:0.034568 
1 1:0.475908 2:-0.021144 3:0 4:0.867863 5:0.034568 
1 1:0.367113 2:0.592089 3:0 4:0.860629 5:0.034568 
1 1:0.351437 2:0.216604 3:0 4:0.860629 5:0.034568 
1 1:0.314359 2:0.125897 3:0 4:0.960336 5:0.024691 
1 1:0.243782 2:0.032774 3:0 4:0.940826 5:0.034568 
1 1:0.218928 2:0.272242 3:0 4:0.945101 5:0.034568 
1 1:0.313291 2:0.074184 3:0 4:0.924858 5:0.034568 
1 1:0.22102 2:-0.223895 3:0 4:0.924858 5:0.034568 
1 1:0.321288 2:0.285634 3:0 4:0.937737 5:0.034568 
1 1:0.340387 2:0.27731 3:0 4:0.937737 5:0.034568 
1 1:0.479419 2:-0.128277 3:0 4:0.929859 5:0.034568 
1 1:0.520572 2:-0.067414 3:0 4:0.929859 5:0.034568 
1 1:0.24283 2:0.410614 3:0.052874 4:0.862128 5:0.064198 
1 1:0.268363 2:0.320129 3:0 4:0.863231 5:0.064198 
1 1:0.184045 2:0.329873 3:0 4:0.883474 5:0.064198 
1 1:0.197767 2:-0.066586 3:0.018977 4:0.869047 5:0.064198 
1 1:0.247181 2:0.465479 3:0 4:0.855752 5:0.064198 
1 1:0.552702 2:0.32397 3:0 4:0.941951 5:0.024691 
1 1:0.548202 2:0.3598 3:0 4:0.942435 5:0.024691 
1 1:0.507396 2:0.490582 3:0 4:0.941951 5:0.034568 
1 1:0.534005 2:0.688464 3:0 4:0.942435 5:0.034568 
1 1:0.516258 2:0.573267 3:0 4:0.942435 5:0.034568 
1 1:0.418041 2:0.034069 3:0 4:0.942435 5:0.034568 
1 1:0.316281 2:0.52321 3:0 4:0.940887 5:0.034568 
1 1:0.48568 2:0.419486 3:0 4:0.940887 5:0.034568 
1 1:0.529169 2:0.175231 3:0 4:0.938121 5:0.034568 
1 1:0.459748 2:-0.163348 3:0 4:0.938121 5:0.034568 
1 1:0.251557 2:0.448224 3:0 4:0.940887 5:0.064198 
1 1:0.418201 2:0.765353 3:0 4:0.936573 5:0.064198 
1 1:0.478795 2:0.523712 3:0 4:0.936573 5:0.064198 
1 1:0.411245 2:0.647589 3:0 4:0.938121 5:0.064198 
1 1:0.243883 2:0.45059 3:0 4:0.936573 5:0.064198 
1 1:0.414834 2:-0.27921 3:0 4:0.882018 5:0.024691 
1 1:0.513017 2:0.198388 3:0 4:0.882018 5:0.024691 
1 1:0.480716 2:0.089122 3:0 4:0.882018 5:0.024691 
1 1:0.449418 2:0.256006 3:0 4:0.876652 5:0.039506 
1 1:0.438937 2:-0.175666 3:0 4:0.876652 5:0.039506 
1 1:0.435886 2:-0.025657 3:0 4:0.882018 5:0.039506 
1 1:0.370984 2:-0.266023 3:0 4:0.876652 5:0.039506 
1 1:0.443741 2:0.21745 3:0 4:0.876652 5:0.039506 
1 1:0.132255 2:0.90758 3:0.46932 4:0.630978 5:0.093827 
1 1:0.126664 2:0.514089 3:0.360903 4:0.722859 5:0.093827 
1 1:0.241071 2:0.847744 3:0.461875 4:0.737778 5:0.093827 
1 1:0.043551 2:0.324986 3:0.458581 4:0.743091 5:0.093827 
1 1:0.191571 2:-0.593497 3:0 4:0.963789 5:0.022222 
1 1:0.306942 2:-0.291311 3:0 4:0.968063 5:0.022222 
1 1:0.173474 2:-0.576134 3:0 4:0.860104 5:0.032099 
1 1:0.144166 2:-0.615106 3:0 4:0.864379 5:0.032099 
1 1:0.15261 2:-0.673422 3:0 4:0.876478 5:0.032099 
1 1:0.369252 2:-0.017204 3:0 4:0.877544 5:0.032099 
1 1:0.217868 2:-0.181757 3:0 4:0.877544 5:0.032099 
1 1:0.129722 2:-0.302499 3:0.138277 4:0.593195 5:0.061728 
1 1:0.163178 2:-0.49501 3:0.143051 4:0.588535 5:0.061728 
1 1:0.095363 2:-0.30981 3:0.38355 4:0.557312 5:0.061728 
1 1:0.448039 2:-0.209443 3:0 4:0.872939 5:0.037037 
1 1:0.355613 2:-0.056716 3:0 4:0.856212 5:0.037037 
1 1:0.295306 2:0.191339 3:0 4:0.856212 5:0.037037 
1 1:0.244964 2:-0.309549 3:0 4:0.934346 5:0.02716 
1 1:0.199631 2:-0.323126 3:0 4:0.908358 5:0.037037 
1 1:0.146835 2:-0.457267 3:0 4:0.912633 5:0.037037 
1 1:0.232976 2:-0.223603 3:0 4:0.903873 5:0.037037 
1 1:0.386006 2:0.123157 3:0 4:0.920118 5:0.037037 
1 1:0.34051 2:0.006501 3:0 4:0.920118 5:0.037037 
1 1:0.266584 2:-0.25243 3:0 4:0.912313 5:0.037037 
1 1:0.319119 2:-0.381912 3:0 4:0.913405 5:0.037037 
1 1:0.171687 2:-0.071147 3:0 4:0.848442 5:0.066667 
1 1:0.164645 2:-0.273452 3:0 4:0.861246 5:0.066667 
1 1:0.253307 2:-0.062181 3:0 4:0.868914 5:0.066667 
1 1:0.110906 2:-0.25579 3:0 4:0.852669 5:0.066667 
1 1:0.194378 2:0.004427 3:0 4:0.84729 5:0.066667 
1 1:0.407013 2:0.362899 3:0 4:0.930384 5:0.02716 
1 1:0.46749 2:0.112616 3:0 4:0.930384 5:0.02716 
1 1:0.514346 2:0.507607 3:0 4:0.930384 5:0.037037 
1 1:0.465428 2:0.49379 3:0 4:0.930384 5:0.037037 
1 1:0.209881 2:0.054471 3:0 4:0.930384 5:0.037037 
1 1:0.483659 2:0.172508 3:0 4:0.930384 5:0.037037 
1 1:0.35579 2:0.123257 3:0 4:0.928836 5:0.037037 
1 1:0.238703 2:0.237007 3:0 4:0.928836 5:0.037037 
1 1:0.202789 2:-0.148312 3:0 4:0.92607 5:0.037037 
1 1:0.511729 2:-0.123236 3:0 4:0.92607 5:0.037037 
1 1:0.197106 2:0.46176 3:0 4:0.928836 5:0.066667 
1 1:0.311239 2:0.676019 3:0 4:0.924522 5:0.066667 
1 1:0.106429 2:0.211723 3:0 4:0.92607 5:0.066667 
1 1:0.198368 2:0.475619 3:0 4:0.924522 5:0.066667 
1 1:0.353697 2:-0.424162 3:0 4:0.870383 5:0.022222 
1 1:0.383247 2:-0.350347 3:0 4:0.870383 5:0.02716 
1 1:0.404879 2:-0.075548 3:0 4:0.870383 5:0.02716 
1 1:0.378132 2:-0.259985 3:0 4:0.870383 5:0.02716 
1 1:0.393381 2:-0.330005 3:0 4:0.870383 5:0.02716 
1 1:0.343615 2:-0.162038 3:0 4:0.870383 5:0.041975 
1 1:0.338908 2:-0.252339 3:0 4:0.870383 5:0.041975 
1 1:0.330035 2:-0.269811 3:0 4:0.870383 5:0.041975 
1 1:0.273254 2:-0.165616 3:0 4:0.870383 5:0.041975 
1 1:0.346449 2:-0.13147 3:0 4:0.870383 5:0.041975 
1 1:0.112676 2:0.375411 3:0.337327 4:0.667013 5:0.096296 
1 1:0.106536 2:0.45707 3:0.07289 4:0.782609 5:0.096296 
1 1:0.116352 2:0.556462 3:0.243757 4:0.782768 5:0.096296 
1 1:0.067319 2:0.494724 3:0.243109 4:0.782553 5:0.096296 
1 1:0.417504 2:0.39021 3:0 4:0.97117 5:0.022222 
1 1:0.370589 2:0.292899 3:0 4:0.97117 5:0.022222 
1 1:0.316611 2:0.586561 3:0 4:0.967815 5:0.032099 
1 1:0.324176 2:0.345317 3:0 4:0.967815 5:0.032099 
1 1:0.504505 2:0.318921 3:0 4:0.958768 5:0.032099 
1 1:0.50779 2:0.371348 3:0 4:0.958768 5:0.032099 
1 1:0.369421 2:0.445864 3:0 4:0.962799 5:0.032099 
1 1:0.444179 2:0.529153 3:0 4:0.962799 5:0.032099 
1 1:0.532425 2:0.10215 3:0 4:0.917474 5:0.032099 
1 1:0.570241 2:0.279932 3:0 4:0.917474 5:0.032099 
1 1:0.205852 2:0.321683 3:0 4:0.915753 5:0.061728 
1 1:0.409485 2:0.765214 3:0 4:0.896701 5:0.061728 
1 1:0.368098 2:0.692296 3:0.026671 4:0.903572 5:0.061728 
1 1:0.194434 2:0.354375 3:0 4:0.901717 5:0.061728 
1 1:0.204053 2:0.293477 3:0 4:0.924636 5:0.061728 
1 1:0.620432 2:0.189391 3:0 4:0.943167 5:0.02716 
1 1:0.696892 2:0.539908 3:0 4:0.941756 5:0.02716 
1 1:0.376388 2:0.506391 3:0 4:0.939812 5:0.037037 
1 1:0.403221 2:0.320527 3:0 4:0.940296 5:0.037037 
1 1:0.52302 2:0.433968 3:0 4:0.931981 5:0.037037 
1 1:0.518833 2:0.468037 3:0 4:0.930086 5:0.037037 
1 1:0.471582 2:0.658206 3:0 4:0.943651 5:0.037037 
1 1:0.499384 2:-0.013322 3:0 4:0.901081 5:0.037037 
1 1:0.493692 2:0.278322 3:0 4:0.901081 5:0.037037 
1 1:0.333778 2:0.789296 3:0 4:0.897726 5:0.066667 
1 1:0.193268 2:0.223021 3:0 4:0.886056 5:0.066667 
1 1:0.216578 2:0.255828 3:0 4:0.917345 5:0.066667 
1 1:0.420368 2:0.162253 3:0 4:0.965224 5:0.02716 
1 1:0.348327 2:0.099799 3:0 4:0.965224 5:0.02716 
1 1:0.314093 2:0.149572 3:0 4:0.965224 5:0.037037 
1 1:0.291802 2:0.316068 3:0 4:0.965224 5:0.037037 
1 1:0.373846 2:0.348083 3:0 4:0.959126 5:0.037037 
1 1:0.340194 2:0.22932 3:0 4:0.959126 5:0.037037 
1 1:0.263805 2:0.074261 3:0 4:0.956853 5:0.037037 
1 1:0.361633 2:0.215735 3:0 4:0.956853 5:0.037037 
1 1:0.571889 2:0.06448 3:0 4:0.954098 5:0.037037 
1 1:0.22959 2:0.224125 3:0 4:0.950755 5:0.066667 
1 1:0.22554 2:0.266981 3:0 4:0.939629 5:0.066667 
1 1:0.214013 2:0.07669 3:0 4:0.945727 5:0.066667 
1 1:0.434817 2:0.271141 3:0 4:0.948 5:0.066667 
1 1:0.221848 2:0.198577 3:0 4:0.939629 5:0.066667 
1 1:0.657646 2:0.238682 3:0 4:0.95003 5:0.02716 
1 1:0.600182 2:0.490743 3:0 4:0.948619 5:0.02716 
1 1:0.531912 2:0.434569 3:0 4:0.95003 5:0.037037 
1 1:0.512358 2:0.411815 3:0 4:0.950514 5:0.037037 
1 1:0.548127 2:0.533973 3:0 4:0.950514 5:0.037037 
1 1:0.418469 2:0.219585 3:0 4:0.948619 5:0.037037 
1 1:0.42299 2:0.371573 3:0 4:0.950514 5:0.037037 
1 1:0.511832 2:0.038831 3:0 4:0.950514 5:0.037037 
1 1:0.504067 2:0.17418 3:0 4:0.950514 5:0.037037 
1 1:0.429029 2:0.099381 3:0 4:0.950514 5:0.037037 
1 1:0.329032 2:0.013698 3:0 4:0.950514 5:0.066667 
1 1:0.423247 2:0.737348 3:0 4:0.948619 5:0.066667 
1 1:0.486718 2:0.607101 3:0 4:0.950514 5:0.066667 
1 1:0.312745 2:0.130334 3:0 4:0.950514 5:0.066667 
1 1:0.332045 2:0.051254 3:0 4:0.950514 5:0.066667 
1 1:0.517315 2:-0.162141 3:0 4:0.940157 5:0.022222 
1 1:0.515533 2:-0.258671 3:0 4:0.940157 5:0.022222 
1 1:0.545626 2:0.023513 3:0 4:0.934791 5:0.02716 
1 1:0.513695 2:-0.19039 3:0 4:0.934791 5:0.02716 
1 1:0.469936 2:-0.234862 3:0 4:0.940157 5:0.02716 
1 1:0.388691 2:-0.288094 3:0 4:0.934791 5:0.041975 
1 1:0.432812 2:-0.23469 3:0 4:0.934791 5:0.041975 
1 1:0.401499 2:-0.351547 3:0 4:0.940157 5:0.041975 
1 1:0.386134 2:-0.338332 3:0 4:0.934791 5:0.041975 
1 1:0.115392 2:0.283562 3:0 4:0.893326 5:0.096296 
1 1:0.281224 2:0.289907 3:0 4:0.889603 5:0.096296 
1 1:0.177239 2:0.232853 3:0 4:0.901326 5:0.096296 
1 1:0.32032 2:0.361283 3:0 4:0.905868 5:0.096296 
1 1:0.20345 2:-0.170972 3:0 4:0.971749 5:0.022222 
1 1:0.211929 2:-0.005613 3:0 4:0.971749 5:0.022222 
1 1:0.122301 2:-0.338283 3:0 4:0.965272 5:0.032099 
1 1:0.160432 2:0.129943 3:0 4:0.965272 5:0.032099 
1 1:0.165382 2:-0.344196 3:0 4:0.968482 5:0.032099 
1 1:0.200356 2:-0.29148 3:0 4:0.969574 5:0.032099 
1 1:0.315169 2:0.189315 3:0 4:0.971749 5:0.032099 
1 1:0.323021 2:-0.003346 3:0 4:0.971749 5:0.032099 
1 1:0.264132 2:-0.374076 3:0 4:0.969068 5:0.032099 
1 1:0.280746 2:-0.426596 3:0 4:0.97016 5:0.032099 
1 1:0.173045 2:-0.047112 3:0 4:0.963096 5:0.061728 
1 1:0.152137 2:0.082465 3:0 4:0.967984 5:0.061728 
1 1:0.242957 2:-0.091441 3:0 4:0.963683 5:0.061728 
1 1:0.09472 2:-0.423873 3:0 4:0.960415 5:0.061728 
1 1:0.167159 2:-0.094481 3:0 4:0.961507 5:0.061728 
1 1:0.273628 2:-0.333236 3:0 4:0.971749 5:0.02716 
1 1:0.202654 2:0.005572 3:0 4:0.971749 5:0.02716 
1 1:0.117377 2:-0.268762 3:0 4:0.971749 5:0.037037 
1 1:0.193827 2:0.003023 3:0 4:0.971749 5:0.037037 
1 1:0.160661 2:-0.36928 3:0 4:0.969574 5:0.037037 
1 1:0.206986 2:0.025644 3:0 4:0.969574 5:0.037037 
1 1:0.097598 2:-0.1589 3:0 4:0.971749 5:0.037037 
1 1:0.110013 2:-0.086171 3:0 4:0.971749 5:0.037037 
1 1:0.28902 2:0.059193 3:0 4:0.971749 5:0.037037 
1 1:0.347025 2:0.361815 3:0 4:0.971749 5:0.037037 
1 1:0.097276 2:-0.098987 3:0 4:0.969574 5:0.066667 
1 1:0.157746 2:-0.085817 3:0 4:0.969574 5:0.066667 
1 1:0.060177 2:-0.115666 3:0 4:0.971749 5:0.066667 
1 1:0.116491 2:0.045363 3:0 4:0.969574 5:0.066667 
1 1:0.093462 2:-0.021399 3:0 4:0.969574 5:0.066667 
1 1:0.241347 2:-0.170288 3:0 4:0.971749 5:0.02716 
1 1:0.259798 2:0.089361 3:0 4:0.971749 5:0.02716 
1 1:0.171853 2:-0.395235 3:0.023231 4:0.963377 5:0.037037 
1 1:0.185994 2:-0.231848 3:0 4:0.965272 5:0.037037 
1 1:0.272949 2:-0.003809 3:0 4:0.970657 5:0.037037 
1 1:0.306818 2:-0.453133 3:0 4:0.971749 5:0.037037 
1 1:0.284071 2:0.090675 3:0 4:0.971749 5:0.037037 
1 1:0.21964 2:-0.142478 3:0 4:0.971749 5:0.037037 
1 1:0.348294 2:-0.114643 3:0 4:0.969068 5:0.037037 
1 1:0.451733 2:-0.209471 3:0 4:0.97016 5:0.037037 
1 1:0.239907 2:-0.043444 3:0 4:0.965272 5:0.066667 
1 1:0.233037 2:-0.004245 3:0 4:0.97016 5:0.066667 
1 1:0.179947 2:-0.065947 3:0 4:0.963683 5:0.066667 
1 1:0.244618 2:-0.111439 3:0 4:0.962591 5:0.066667 
1 1:0.229369 2:-0.07588 3:0 4:0.963683 5:0.066667 
1 1:0.261996 2:0.015186 3:0 4:0.971749 5:0.02716 
1 1:0.27285 2:0.285917 3:0 4:0.971749 5:0.02716 
1 1:0.120095 2:0.121415 3:0 4:0.971749 5:0.037037 
1 1:0.187361 2:-0.006696 3:0 4:0.971749 5:0.037037 
1 1:0.313568 2:0.645683 3:0 4:0.971749 5:0.037037 
1 1:0.349083 2:0.338679 3:0 4:0.971749 5:0.037037 
1 1:0.154617 2:0.101987 3:0 4:0.971749 5:0.037037 
1 1:0.172757 2:0.090674 3:0 4:0.971749 5:0.037037 
1 1:0.308884 2:0.334508 3:0 4:0.971749 5:0.037037 
1 1:0.389461 2:0.549909 3:0 4:0.971749 5:0.037037 
1 1:0.126298 2:0.456199 3:0 4:0.971749 5:0.066667 
1 1:0.211066 2:0.530854 3:0 4:0.971749 5:0.066667 
1 1:0.056301 2:0.007927 3:0 4:0.971749 5:0.066667 
1 1:0.198973 2:0.35521 3:0 4:0.971749 5:0.066667 
1 1:0.12503 2:0.436799 3:0 4:0.971749 5:0.066667 
1 1:0.356489 2:-0.373924 3:0 4:0.962591 5:0.022222 
1 1:0.324549 2:-0.225924 3:0 4:0.962591 5:0.022222 
1 1:0.280399 2:-0.506355 3:0 4:0.962591 5:0.02716 
1 1:0.242679 2:-0.431639 3:0 4:0.962591 5:0.02716 
1 1:0.42799 2:0.177973 3:0 4:0.962591 5:0.02716 
1 1:0.405338 2:-0.403237 3:0 4:0.962591 5:0.02716 
1 1:0.365891 2:-0.155266 3:0 4:0.962591 5:0.02716 
1 1:0.258956 2:-0.494314 3:0 4:0.962591 5:0.02716 
1 1:0.443789 2:-0.04111 3:0 4:0.962591 5:0.02716 
1 1:0.467436 2:-0.29443 3:0 4:0.962591 5:0.02716 
1 1:0.290501 2:-0.307702 3:0 4:0.962591 5:0.041975 
1 1:0.36495 2:0.139734 3:0 4:0.962591 5:0.041975 
1 1:0.211998 2:-0.485329 3:0 4:0.962591 5:0.041975 
1 1:0.292654 2:-0.214474 3:0 4:0.962591 5:0.041975 
1 1:0.287081 2:-0.313291 3:0 4:0.962591 5:0.041975 
1 1:0.108753 2:0.053066 3:0 4:0.953432 5:0.096296 
1 1:0.038722 2:-0.14852 3:0 4:0.962591 5:0.096296 
1 1:0.084516 2:-0.01837 3:0.009444 4:0.96182 5:0.096296 
1 1:0.05059 2:0.286135 3:0 4:0.962591 5:0.096296 
1 1:0.692323 2:0.299212 3:0 4:0.932389 5:0.014815 
1 1:0.732848 2:0.265477 3:0 4:0.932389 5:0.019753 
1 1:0.666612 2:0.571458 3:0 4:0.932389 5:0.019753 
1 1:0.74763 2:0.153104 3:0 4:0.932389 5:0.019753 
1 1:0.758506 2:0.518326 3:0 4:0.932389 5:0.019753 
1 1:0.783141 2:0.462928 3:0 4:0.932389 5:0.019753 
1 1:0.526488 2:0.143231 3:0 4:0.932389 5:0.034568 
1 1:0.583753 2:0.263623 3:0 4:0.932389 5:0.034568 
1 1:0.644725 2:0.56707 3:0 4:0.932389 5:0.034568 
1 1:0.554538 2:0.138098 3:0 4:0.932389 5:0.034568 
1 1:0.510097 2:0.16536 3:0 4:0.932389 5:0.034568 
1 1:0.839469 2:0.439967 3:0 4:0.930494 5:0.017284 
1 1:0.697465 2:0.306983 3:0 4:0.932389 5:0.022222 
1 1:0.72792 2:0.220766 3:0 4:0.932389 5:0.022222 
1 1:0.672798 2:0.140607 3:0 4:0.932389 5:0.022222 
1 1:0.678189 2:0.245968 3:0 4:0.930494 5:0.022222 
1 1:0.619103 2:0.619353 3:0 4:0.932389 5:0.022222 
1 1:0.715 2:0.27004 3:0 4:0.932389 5:0.022222 
1 1:0.635018 2:-0.05569 3:0 4:0.932389 5:0.022222 
1 1:0.581367 2:0.545824 3:0 4:0.932389 5:0.037037 
1 1:0.600515 2:0.445263 3:0 4:0.930494 5:0.037037 
1 1:0.644102 2:0.606153 3:0 4:0.932389 5:0.037037 
1 1:0.497771 2:-0.012361 3:0 4:0.932389 5:0.037037 
1 1:0.560933 2:0.518123 3:0 4:0.932389 5:0.037037 
1 1:0.720046 2:0.175869 3:0 4:0.932389 5:0.017284 
1 1:0.653646 2:0.174533 3:0 4:0.932389 5:0.022222 
1 1:0.702096 2:0.142779 3:0 4:0.932389 5:0.022222 
1 1:0.736011 2:0.21906 3:0 4:0.932389 5:0.037037 
1 1:0.800311 2:0.162311 3:0 4:0.931618 5:0.017284 
1 1:0.775304 2:0.557371 3:0 4:0.929723 5:0.017284 
1 1:0.668999 2:0.317383 3:0 4:0.931618 5:0.022222 
1 1:0.654155 2:0.12468 3:0 4:0.931618 5:0.022222 
1 1:0.801456 2:0.514102 3:0 4:0.931618 5:0.022222 
1 1:0.738479 2:0.444674 3:0 4:0.929723 5:0.022222 
1 1:0.571569 2:0.386283 3:0 4:0.931618 5:0.022222 
1 1:0.772502 2:0.28507 3:0 4:0.931618 5:0.022222 
1 1:0.704784 2:0.166519 3:0 4:0.931618 5:0.022222 
1 1:0.477531 2:0.306983 3:0 4:0.931618 5:0.037037 
1 1:0.675645 2:0.658999 3:0 4:0.929723 5:0.037037 
1 1:0.606944 2:0.420784 3:0 4:0.931618 5:0.037037 
1 1:0.577346 2:0.233749 3:0 4:0.931618 5:0.037037 
1 1:0.471721 2:0.286421 3:0 4:0.931618 5:0.037037 
1 1:0.514269 2:0.404368 3:0 4:0.931618 5:0.051852 
1 1:0.38766 2:0.054602 3:0 4:0.930066 5:0.051852 
1 1:0.404969 2:0.260547 3:0 4:0.92817 5:0.051852 
1 1:0.486108 2:0.076946 3:0 4:0.930836 5:0.051852 
1 1:0.517114 2:0.427011 3:0 4:0.930066 5:0.051852 
1 1:0.103145 2:0.733345 3:0.391478 4:0.676887 5:0.207407 
1 1:0.001416 2:-0.105801 3:0.353398 4:0.822878 5:0.207407 
1 1:0.212604 2:0.489126 3:0.346295 4:0.839153 5:0.207407 
1 1:0.081468 2:0.539214 3:0.403182 4:0.843371 5:0.207407 
1 1:0.102684 2:-0.260496 3:0.325411 4:0.96994 5:0.229167 
1 1:0.643558 2:0.592498 3:0.286952 4:0.96361 5:0.229167 
1 1:0.044526 2:-0.040359 3:0.502228 4:0.926683 5:0.229167 
1 1:0.067862 2:-0.393974 3:0.439744 4:0.88072 5:0.229167 
1 1:0.116247 2:-0.407572 3:0.403796 4:0.916203 5:0.229167 
1 1:0.177561 2:0.243461 3:0.382934 4:0.92659 5:0.229167 
1 1:0.283922 2:0.472304 3:0.347275 4:0.935954 5:0.229167 
1 1:0.187218 2:-0.548624 3:0.343582 4:0.928749 5:0.229167 
1 1:0.869574 2:0.415807 3:0.531243 4:0.918062 5:0.229167 
1 1:0.122576 2:-0.989927 3:0.30586 4:0.93762 5:0.229167 
1 1:0.171358 2:0.475602 3:0.691773 4:0.921528 5:0.229167 
1 1:0.150344 2:0.144567 3:0.262651 4:0.981845 5:0.229167 
1 1:0.229422 2:0.264751 3:0.312642 4:0.939472 5:0.243056 
1 1:0.436146 2:0.254818 3:0.316978 4:0.925169 5:0.243056 
1 1:0.497933 2:0.495913 3:0.661255 4:0.88719 5:0.243056 
1 1:0.128751 2:0.008528 3:0.335968 4:0.903684 5:0.243056 
1 1:0.107591 2:-0.048603 3:0.290282 4:0.925471 5:0.243056 
1 1:1 2:0.403704 3:0.290239 4:0.935888 5:0.243056 
1 1:0.157793 2:0.317429 3:0.493726 4:0.900247 5:0.243056 
1 1:0.090597 2:-0.238855 3:0.338989 4:0.932367 5:0.243056 
1 1:0.042213 2:-0.893428 3:0.443076 4:0.903681 5:0.243056 
1 1:0.131266 2:-0.287162 3:0.224876 4:0.956081 5:0.229167 
1 1:0.120695 2:-0.059716 3:0.109637 4:0.958985 5:0.229167 
1 1:0.230133 2:0.205637 3:0.54698 4:0.900401 5:0.243056 
1 1:0.07356 2:-0.323975 3:0.587651 4:0.901592 5:0.256944 
1 1:0.1167 2:0.224934 3:0.586153 4:0.858839 5:0.256944 
1 1:0.712741 2:0.191917 3:0.649466 4:0.831637 5:0.256944 
1 1:0.088909 2:-0.372332 3:0.453077 4:0.849091 5:0.256944 
1 1:0.289201 2:-0.529344 3:0.536684 4:0.864931 5:0.256944 
1 1:0.260531 2:-0.019831 3:0.604393 4:0.855783 5:0.256944 
1 1:0.185694 2:0.5047 3:0.69266 4:0.866638 5:0.256944 
1 1:0.111084 2:0.309794 3:0.572673 4:0.905152 5:0.243056 
1 1:0.24504 2:0.351417 3:0.410666 4:0.940282 5:0.229167 
1 1:0.131694 2:0.27849 3:0.361167 4:0.936408 5:0.243056 
1 1:0.172945 2:0.247847 3:0.310708 4:0.90642 5:0.256944 
1 1:0.254363 2:0.177346 3:0.574092 4:0.869928 5:0.270833 
1 1:0.476208 2:0.213328 3:0.64401 4:0.832133 5:0.270833 
1 1:0.126307 2:0.212922 3:0.505072 4:0.868793 5:0.270833 
1 1:0.128778 2:0.316382 3:0.559188 4:0.867892 5:0.270833 
1 1:0.089395 2:-0.456007 3:0.628563 4:0.833838 5:0.270833 
1 1:0.375195 2:0.119167 3:0.430579 4:0.893164 5:0.256944 
1 1:0.135496 2:-0.343198 3:0.242955 4:0.933459 5:0.243056 
1 1:0.55714 2:0.663606 3:0.192761 4:0.976021 5:0.229167 
1 1:0.12212 2:-0.1316 3:0.341592 4:0.917644 5:0.243056 
1 1:0.3102 2:-0.013091 3:0.517901 4:0.863358 5:0.270833 
1 1:0.334285 2:0.811013 3:0.79213 4:0.817312 5:0.284722 
1 1:0.043638 2:-0.21272 3:0.807 4:0.815556 5:0.284722 
1 1:0.085417 2:-0.255445 3:0.543347 4:0.838708 5:0.284722 
1 1:0.23589 2:0.230887 3:0.623171 4:0.807891 5:0.284722 
1 1:0.683749 2:0.393387 3:0.580839 4:0.845431 5:0.270833 
1 1:0.059296 2:0.153077 3:0.25739 4:0.900408 5:0.256944 
1 1:0.144312 2:-0.008192 3:0.226615 4:0.930376 5:0.243056 
1 1:0.147108 2:-0.172101 3:0.292121 4:0.937652 5:0.229167 
1 1:0.256715 2:0.021142 3:0.247878 4:0.944946 5:0.229167 
1 1:0.127525 2:-0.506971 3:0.596118 4:0.901391 5:0.243056 
1 1:0.70052 2:0.494526 3:0.436158 4:0.891223 5:0.256944 
1 1:0.097383 2:-0.324049 3:0.451467 4:0.843737 5:0.270833 
1 1:0.083728 2:0.349891 3:1 4:0.76019 5:0.284722 
1 1:0.201567 2:0.810281 3:0.837991 4:0.78238 5:0.298611 
1 1:0.226396 2:0.021039 3:0.925119 4:0.75808 5:0.298611 
1 1:0.475408 2:0.682406 3:0.610658 4:0.835454 5:0.270833 
1 1:0.061552 2:-0.277709 3:0.540715 4:0.873276 5:0.256944 
1 1:0.542339 2:0.43376 3:0.559789 4:0.892033 5:0.243056 
1 1:0.150811 2:0.191476 3:0.415808 4:0.926445 5:0.229167 
1 1:0.090255 2:-0.540999 3:0.165123 4:0.97298 5:0.229167 
1 1:0.207597 2:0.195527 3:0.29388 4:0.915254 5:0.243056 
1 1:0.205938 2:0.348682 3:0.33004 4:0.908689 5:0.256944 
1 1:0.183105 2:0.344905 3:0.696529 4:0.839941 5:0.270833 
1 1:0.08583 2:-0.234427 3:0.812017 4:0.805865 5:0.284722 
1 1:0.735572 2:0.599591 3:0.908544 4:0.769286 5:0.298611 
1 1:0.147351 2:0.094251 3:0.786699 4:0.804369 5:0.298611 
1 1:0.166044 2:0.17175 3:0.427146 4:0.834654 5:0.284722 
1 1:0.307233 2:0.047043 3:0.502735 4:0.860114 5:0.270833 
1 1:0.128121 2:-0.221353 3:0.461342 4:0.866222 5:0.256944 
1 1:0.403714 2:-0.377076 3:0.309535 4:0.941402 5:0.229167 
1 1:0.344249 2:0.201831 3:0.190703 4:0.969732 5:0.229167 
1 1:0.022998 2:-0.49499 3:0.312885 4:0.927312 5:0.243056 
1 1:0.115292 2:-0.229093 3:0.433016 4:0.887738 5:0.256944 
1 1:0.114145 2:-0.04885 3:0.890777 4:0.768145 5:0.284722 
1 1:0.56155 2:0.890518 3:0.725327 4:0.828156 5:0.284722 
1 1:0.080455 2:0.07261 3:0.583841 4:0.835163 5:0.284722 
1 1:0.093083 2:0.004152 3:0.419037 4:0.838297 5:0.284722 
1 1:0.162049 2:0.030587 3:0.659328 4:0.835349 5:0.270833 
1 1:0.110463 2:-0.129341 3:0.504958 4:0.891041 5:0.256944 
1 1:0.140461 2:0.060607 3:0.361726 4:0.904745 5:0.243056 
1 1:0.22788 2:-0.183882 3:0.466842 4:0.939372 5:0.229167 
1 1:0.159102 2:0.294383 3:0.155454 4:0.992042 5:0.229167 
1 1:0.407836 2:0.278998 3:0.383655 4:0.908738 5:0.243056 
1 1:0.09049 2:-0.169919 3:0.196587 4:0.9213 5:0.256944 
1 1:0.076606 2:0.40007 3:0.682369 4:0.847653 5:0.270833 
